{"learner":{"attributes":{"scikit_learn":"{\"_estimator_type\": \"classifier\"}"},"feature_names":["home_xg_for_avg5","home_xg_against_avg5","home_goals_avg5","home_pts_avg5","away_xg_for_avg5","away_xg_against_avg5","away_goals_avg5","away_pts_avg5","xg_diff","form_diff"],"feature_types":["float","float","float","float","float","float","float","float","float","float"],"gradient_booster":{"model":{"cats":{"enc":[],"feature_segments":[],"sorted_idx":[]},"gbtree_model_param":{"num_parallel_tree":"1","num_trees":"900"},"iteration_indptr":[0,3,6,9,12,15,18,21,24,27,30,33,36,39,42,45,48,51,54,57,60,63,66,69,72,75,78,81,84,87,90,93,96,99,102,105,108,111,114,117,120,123,126,129,132,135,138,141,144,147,150,153,156,159,162,165,168,171,174,177,180,183,186,189,192,195,198,201,204,207,210,213,216,219,222,225,228,231,234,237,240,243,246,249,252,255,258,261,264,267,270,273,276,279,282,285,288,291,294,297,300,303,306,309,312,315,318,321,324,327,330,333,336,339,342,345,348,351,354,357,360,363,366,369,372,375,378,381,384,387,390,393,396,399,402,405,408,411,414,417,420,423,426,429,432,435,438,441,444,447,450,453,456,459,462,465,468,471,474,477,480,483,486,489,492,495,498,501,504,507,510,513,516,519,522,525,528,531,534,537,540,543,546,549,552,555,558,561,564,567,570,573,576,579,582,585,588,591,594,597,600,603,606,609,612,615,618,621,624,627,630,633,636,639,642,645,648,651,654,657,660,663,666,669,672,675,678,681,684,687,690,693,696,699,702,705,708,711,714,717,720,723,726,729,732,735,738,741,744,747,750,753,756,759,762,765,768,771,774,777,780,783,786,789,792,795,798,801,804,807,810,813,816,819,822,825,828,831,834,837,840,843,846,849,852,855,858,861,864,867,870,873,876,879,882,885,888,891,894,897,900],"tree_info":[0,1,2,0,1,2,0,1,2,0,1,2,0,1,2,0,1,2,0,1,2,0,1,2,0,1,2,0,1,2,0,1,2,0,1,2,0,1,2,0,1,2,0,1,2,0,1,2,0,1,2,0,1,2,0,1,2,0,1,2,0,1,2,0,1,2,0,1,2,0,1,2,0,1,2,0,1,2,0,1,2,0,1,2,0,1,2,0,1,2,0,1,2,0,1,2,0,1,2,0,1,2,0,1,2,0,1,2,0,1,2,0,1,2,0,1,2,0,1,2,0,1,2,0,1,2,0,1,2,0,1,2,0,1,2,0,1,2,0,1,2,0,1,2,0,1,2,0,1,2,0,1,2,0,1,2,0,1,2,0,1,2,0,1,2,0,1,2,0,1,2,0,1,2,0,1,2,0,1,2,0,1,2,0,1,2,0,1,2,0,1,2,0,1,2,0,1,2,0,1,2,0,1,2,0,1,2,0,1,2,0,1,2,0,1,2,0,1,2,0,1,2,0,1,2,0,1,2,0,1,2,0,1,2,0,1,2,0,1,2,0,1,2,0,1,2,0,1,2,0,1,2,0,1,2,0,1,2,0,1,2,0,1,2,0,1,2,0,1,2,0,1,2,0,1,2,0,1,2,0,1,2,0,1,2,0,1,2,0,1,2,0,1,2,0,1,2,0,1,2,0,1,2,0,1,2,0,1,2,0,1,2,0,1,2,0,1,2,0,1,2,0,1,2,0,1,2,0,1,2,0,1,2,0,1,2,0,1,2,0,1,2,0,1,2,0,1,2,0,1,2,0,1,2,0,1,2,0,1,2,0,1,2,0,1,2,0,1,2,0,1,2,0,1,2,0,1,2,0,1,2,0,1,2,0,1,2,0,1,2,0,1,2,0,1,2,0,1,2,0,1,2,0,1,2,0,1,2,0,1,2,0,1,2,0,1,2,0,1,2,0,1,2,0,1,2,0,1,2,0,1,2,0,1,2,0,1,2,0,1,2,0,1,2,0,1,2,0,1,2,0,1,2,0,1,2,0,1,2,0,1,2,0,1,2,0,1,2,0,1,2,0,1,2,0,1,2,0,1,2,0,1,2,0,1,2,0,1,2,0,1,2,0,1,2,0,1,2,0,1,2,0,1,2,0,1,2,0,1,2,0,1,2,0,1,2,0,1,2,0,1,2,0,1,2,0,1,2,0,1,2,0,1,2,0,1,2,0,1,2,0,1,2,0,1,2,0,1,2,0,1,2,0,1,2,0,1,2,0,1,2,0,1,2,0,1,2,0,1,2,0,1,2,0,1,2,0,1,2,0,1,2,0,1,2,0,1,2,0,1,2,0,1,2,0,1,2,0,1,2,0,1,2,0,1,2,0,1,2,0,1,2,0,1,2,0,1,2,0,1,2,0,1,2,0,1,2,0,1,2,0,1,2,0,1,2,0,1,2,0,1,2,0,1,2,0,1,2,0,1,2,0,1,2,0,1,2,0,1,2,0,1,2,0,1,2,0,1,2,0,1,2,0,1,2,0,1,2,0,1,2,0,1,2,0,1,2,0,1,2,0,1,2,0,1,2,0,1,2,0,1,2,0,1,2,0,1,2,0,1,2,0,1,2,0,1,2,0,1,2,0,1,2,0,1,2,0,1,2,0,1,2,0,1,2,0,1,2,0,1,2,0,1,2,0,1,2,0,1,2,0,1,2,0,1,2,0,1,2,0,1,2,0,1,2,0,1,2,0,1,2,0,1,2,0,1,2,0,1,2,0,1,2,0,1,2,0,1,2,0,1,2,0,1,2,0,1,2,0,1,2,0,1,2,0,1,2,0,1,2,0,1,2,0,1,2,0,1,2,0,1,2,0,1,2,0,1,2,0,1,2,0,1,2,0,1,2,0,1,2,0,1,2,0,1,2,0,1,2,0,1,2,0,1,2,0,1,2,0,1,2,0,1,2,0,1,2,0,1,2,0,1,2,0,1,2,0,1,2,0,1,2,0,1,2,0,1,2,0,1,2,0,1,2,0,1,2,0,1,2],"trees":[{"base_weights":[-1.0025239E-2,-1.4657281E-1,5.1433414E-1,6.531703E-2,-2.963604E-1,-1.2809331E-2,5.894428E-1,1.1469916E-1,-4.206135E-1,-4.9846926E-1,-1.01743E-1,-3.3593953E-3,6.398466E-1,-1.4036594E-1,1.6899191E-1,-3.21253E-2,-8.674397E-3,-5.3084105E-1,-2.3809634E-3,-1.9371471E-1,2.686144E-1,5.0067138E-2,5.7021683E-1,7.7515556E-3,-2.4382055E-2,-4.3665287E-3,1.2722758E-2,-1.9125355E-2,-3.4690768E-2,-1.5670978E-2,1.1858299E-3,-6.193876E-3,2.2058746E-2,4.3729346E-2,2.4191499E-2],"categories":[],"categories_nodes":[],"categories_segments":[],"categories_sizes":[],"default_left":[0,0,0,0,0,0,0,0,0,0,0,0,0,0,0,0,0,0,0,0,0,0,0,0,0,0,0,0,0,0,0,0,0,0,0],"id":0,"left_children":[1,3,5,7,9,-1,11,13,15,17,19,-1,21,23,25,-1,-1,27,-1,29,31,-1,33,-1,-1,-1,-1,-1,-1,-1,-1,-1,-1,-1,-1],"loss_changes":[3.2148373E1,1.1323847E1,5.5198917E0,3.6075826E0,8.164076E0,0E0,2.8507004E0,1.8991976E0,6.506045E-1,1.4662457E0,3.718924E0,0E0,1.4145203E0,2.5698948E0,2.4782653E0,0E0,0E0,2.03726E0,0E0,2.267089E0,1.5334626E0,0E0,1.3770027E0,0E0,0E0,0E0,0E0,0E0,0E0,0E0,0E0,0E0,0E0,0E0,0E0],"parents":[2147483647,0,0,1,1,2,2,3,3,4,4,6,6,7,7,8,8,9,9,10,10,12,12,13,13,14,14,17,17,19,19,20,20,22,22],"right_children":[2,4,6,8,10,-1,12,14,16,18,20,-1,22,24,26,-1,-1,28,-1,30,32,-1,34,-1,-1,-1,-1,-1,-1,-1,-1,-1,-1,-1,-1],"split_conditions":[5.319554E-1,1.3348814E0,1E0,2.1112137E0,-5E-1,-1.2809331E-2,5.934992E-1,1.0610516E0,1.2240586E0,1.6666666E0,1.7352636E0,-3.3593953E-3,8.432636E-1,1.923794E-1,1.242662E0,-3.21253E-2,-8.674397E-3,1.9123372E0,-2.3809634E-3,1.5E0,1E-1,5.0067138E-2,1E-1,7.7515556E-3,-2.4382055E-2,-4.3665287E-3,1.2722758E-2,-1.9125355E-2,-3.4690768E-2,-1.5670978E-2,1.1858299E-3,-6.193876E-3,2.2058746E-2,4.3729346E-2,2.4191499E-2],"split_indices":[8,4,3,1,9,0,1,1,5,3,5,0,1,8,5,0,0,4,0,2,9,0,9,0,0,0,0,0,0,0,0,0,0,0,0],"split_type":[0,0,0,0,0,0,0,0,0,0,0,0,0,0,0,0,0,0,0,0,0,0,0,0,0,0,0,0,0,0,0,0,0,0,0],"sum_hessian":[4.4694672E2,3.551763E2,9.177042E1,1.4732872E2,2.0784758E2,7.9369006E0,8.383351E1,1.3443126E2,1.2897464E1,1.0119548E2,1.066521E2,5.9526753E0,7.788084E1,2.3314646E1,1.1111661E2,5.9526753E0,6.944788E0,9.4250694E1,6.944788E0,8.581774E1,2.0834364E1,1.0417182E1,6.746365E1,1.2897464E1,1.0417182E1,2.7779152E1,8.3337456E1,5.10938E1,4.31569E1,5.506225E1,3.075549E1,6.448732E0,1.43856325E1,1.2897464E1,5.4566193E1],"tree_param":{"num_deleted":"0","num_feature":"10","num_nodes":"35","size_leaf_vector":"1"}},{"base_weights":[-1.289933E-2,1.03227876E-1,-1.6900997E-1,4.2230415E-1,6.8489045E-2,2.5143353E-2,-2.0807126E-1,7.128109E-1,-3.8452446E-3,-4.9580736E-3,2.3727947E-1,-6.485799E-2,-4.0212643E-1,1.1210148E-2,5.337387E-2,-1.3175489E-1,1.2906933E-1,-1.4009883E-2,3.3945286E-1,8.438066E-3,-3.3799738E-1,-4.7737455E-1,-2.3062642E-1,7.406838E-3,-1.671762E-2,3.4358114E-2,2.2697067E-3,2.30484E-2,-8.676855E-3,-1.0233732E-2,7.0318407E-3,-9.269651E-3,-2.8285025E-2,-1.1479408E-2,-3.0296361E-2,-2.5644127E-2,4.2490624E-3],"categories":[],"categories_nodes":[],"categories_segments":[],"categories_sizes":[],"default_left":[0,0,0,0,0,0,0,0,0,0,0,0,0,0,0,0,0,0,0,0,0,0,0,0,0,0,0,0,0,0,0,0,0,0,0,0,0],"id":1,"left_children":[1,3,5,7,9,-1,11,13,-1,15,17,19,21,-1,-1,23,25,-1,27,29,31,33,35,-1,-1,-1,-1,-1,-1,-1,-1,-1,-1,-1,-1,-1,-1],"loss_changes":[6.1435857E0,2.1258583E0,3.8976355E0,2.7947779E0,2.1893463E0,0E0,3.789462E0,1.8471975E0,0E0,2.1237502E0,2.9257674E0,1.6081969E0,6.3976383E-1,0E0,0E0,3.6898565E0,2.806718E0,0E0,2.8952117E0,1.8374285E0,4.8548818E-1,1.1175528E0,1.7944609E0,0E0,0E0,0E0,0E0,0E0,0E0,0E0,0E0,0E0,0E0,0E0,0E0,0E0,0E0],"parents":[2147483647,0,0,1,1,2,2,3,3,4,4,6,6,7,7,9,9,10,10,11,11,12,12,15,15,16,16,18,18,19,19,20,20,21,21,22,22],"right_children":[2,4,6,8,10,-1,12,14,-1,16,18,20,22,-1,-1,24,26,-1,28,30,32,34,36,-1,-1,-1,-1,-1,-1,-1,-1,-1,-1,-1,-1,-1,-1],"split_conditions":[1.25E0,2.5E-1,1E0,1.991584E0,1.3333334E0,2.5143353E-2,5.049192E-1,1.2327224E0,-3.8452446E-3,1.4181699E0,8.603375E-1,2.25E0,1.2697222E0,1.1210148E-2,5.337387E-2,1.0616168E0,1.499642E0,-1.4009883E-2,1.8355212E0,1.6E0,2E0,8.73961E-1,1.2137651E0,7.406838E-3,-1.671762E-2,3.4358114E-2,2.2697067E-3,2.30484E-2,-8.676855E-3,-1.0233732E-2,7.0318407E-3,-9.269651E-3,-2.8285025E-2,-1.1479408E-2,-3.0296361E-2,-2.5644127E-2,4.2490624E-3],"split_indices":[2,3,3,1,3,0,8,4,0,4,5,7,4,0,0,4,4,0,5,2,3,4,5,0,0,0,0,0,0,0,0,0,0,0,0,0,0],"split_type":[0,0,0,0,0,0,0,0,0,0,0,0,0,0,0,0,0,0,0,0,0,0,0,0,0,0,0,0,0,0,0,0,0,0,0,0,0],"sum_hessian":[3.3692502E2,1.9339877E2,1.4352626E2,1.7893194E1,1.7550558E2,7.233419E0,1.3629283E2,1.1040482E1,6.8527126E0,1.2296812E2,5.2537464E1,7.91869E1,5.7105938E1,5.3298874E0,5.7105937E0,6.319724E1,5.977088E1,8.375538E0,4.4161926E1,6.319724E1,1.5989662E1,3.8451332E1,1.8654606E1,2.6649437E1,3.65478E1,6.8527126E0,5.2918167E1,3.578639E1,8.375538E0,2.3984493E1,3.9212746E1,1.0659775E1,5.3298874E0,1.4086131E1,2.43652E1,9.517656E0,9.13695E0],"tree_param":{"num_deleted":"0","num_feature":"10","num_nodes":"37","size_leaf_vector":"1"}},{"base_weights":[-5.1378952E-3,2.5440988E-1,-2.3102495E-1,6.7149454E-1,1.5800343E-1,-1.030008E-1,-4.717279E-1,-4.0824995E-3,8.7087774E-1,-3.074295E-1,2.3118344E-1,6.1070845E-2,-2.6447016E-1,-5.523421E-1,-3.0532548E-1,5.5354595E-1,5.481541E-2,-2.7851913E-2,2.9309525E-3,1.8810809E-1,4.928499E-2,4.658366E-2,-4.5791537E-2,-4.10384E-1,-3.3832554E-2,-3.0266022E-2,-1.0687205E-2,-3.1839602E-4,-4.6826482E-1,4.928499E-2,4.6825386E-3,6.0310075E-3,3.506542E-2,2.336512E-2,-7.921175E-3,-2.4997093E-2,5.8418466E-4,1.4058873E-2,-1.5547926E-2,-3.050132E-2,-1.5047567E-2],"categories":[],"categories_nodes":[],"categories_segments":[],"categories_sizes":[],"default_left":[0,0,0,0,0,0,0,0,0,0,0,0,0,0,0,0,0,0,0,0,0,0,0,0,0,0,0,0,0,0,0,0,0,0,0,0,0,0,0,0,0],"id":2,"left_children":[1,3,5,7,9,11,13,-1,15,17,19,21,23,25,27,29,-1,-1,-1,31,-1,-1,33,35,37,-1,-1,-1,39,-1,-1,-1,-1,-1,-1,-1,-1,-1,-1,-1,-1],"loss_changes":[2.1544727E1,6.7700768E0,6.0057383E0,4.846119E0,4.8466625E0,3.4478014E0,7.426691E-1,0E0,1.1978741E0,1.8124415E0,3.770947E0,6.09559E0,2.1894479E0,6.693878E-1,1.1859262E0,2.3916357E0,0E0,0E0,0E0,3.9466238E0,0E0,0E0,3.4779835E0,1.5182543E0,2.397338E0,0E0,0E0,0E0,1.9077015E-1,0E0,0E0,0E0,0E0,0E0,0E0,0E0,0E0,0E0,0E0,0E0,0E0],"parents":[2147483647,0,0,1,1,2,2,3,3,4,4,5,5,6,6,8,8,9,9,10,10,11,11,12,12,13,13,14,14,15,15,19,19,22,22,23,23,24,24,28,28],"right_children":[2,4,6,8,10,12,14,-1,16,18,20,22,24,26,28,30,-1,-1,-1,32,-1,-1,34,36,38,-1,-1,-1,40,-1,-1,-1,-1,-1,-1,-1,-1,-1,-1,-1,-1],"split_conditions":[-1.14124E-1,9.312368E-1,5.54607E-1,1.0773135E0,6.666667E-1,1E-1,1.2E0,-4.0824995E-3,1.4803994E0,1.5941029E0,2.3728418E0,9.164016E-1,1.624098E0,1.5E0,8.321658E-1,1.3059108E0,5.481541E-2,-2.7851913E-2,2.9309525E-3,2.447048E0,4.928499E-2,4.658366E-2,9.639944E-1,1.2E0,1.9313895E0,-3.0266022E-2,-1.0687205E-2,-3.1839602E-4,6.666667E-1,4.928499E-2,4.6825386E-3,6.0310075E-3,3.506542E-2,2.336512E-2,-7.921175E-3,-2.4997093E-2,5.8418466E-4,1.4058873E-2,-1.5547926E-2,-3.050132E-2,-1.5047567E-2],"split_indices":[8,5,8,1,7,9,9,0,1,1,1,1,5,6,8,1,0,0,0,4,0,0,5,9,5,0,0,0,7,0,0,0,0,0,0,0,0,0,0,0,0],"split_type":[0,0,0,0,0,0,0,0,0,0,0,0,0,0,0,0,0,0,0,0,0,0,0,0,0,0,0,0,0,0,0,0,0,0,0,0,0,0,0,0,0],"sum_hessian":[3.6547632E2,1.7000809E2,1.9546823E2,3.0798565E1,1.3920952E2,1.2853268E2,6.693555E1,6.5703607E0,2.4228205E1,1.847914E1,1.2073038E2,6.406102E1,6.4471664E1,4.352864E1,2.340691E1,1.1498131E1,1.2730074E1,1.0676836E1,7.8023033E0,1.1539196E2,5.338418E0,6.1597133E0,5.7901302E1,3.9011517E1,2.5460148E1,3.695828E1,6.5703607E0,8.623598E0,1.4783312E1,5.338418E0,6.1597133E0,1.0307253E2,1.2319427E1,9.855541E0,4.804576E1,3.203051E1,6.981008E0,1.1908779E1,1.3551369E1,6.5703607E0,8.212951E0],"tree_param":{"num_deleted":"0","num_feature":"10","num_nodes":"41","size_leaf_vector":"1"}},{"base_weights":[-1.6649729E-2,-1.5194647E-1,4.9339867E-1,-3.7915418E-1,-5.3871427E-2,-9.219046E-3,5.490143E-1,6.907009E-2,-5.2444434E-1,3.4883335E-2,-2.6355976E-1,-6.985005E-4,5.864457E-1,3.4061024E-1,-1.8496571E-2,-6.858733E-1,-4.112817E-1,-1.1952692E-1,2.1680915E-1,-1.7677294E-1,-4.07546E-2,4.8661497E-1,7.264255E-1,-1.5709033E-2,3.3347137E-2,-1.6146177E-2,-3.9090883E-2,-2.537635E-2,4.7123465E-3,-2.053838E-3,-2.6576875E-2,5.842992E-3,4.113963E-2,-1.2949253E-2,5.5003376E-3,4.5368582E-2,2.0824706E-2,1.4537199E-2,4.0213387E-2],"categories":[],"categories_nodes":[],"categories_segments":[],"categories_sizes":[],"default_left":[0,0,0,0,0,0,0,0,0,0,0,0,0,0,0,0,0,0,0,0,0,0,0,0,0,0,0,0,0,0,0,0,0,0,0,0,0,0,0],"id":3,"left_children":[1,3,5,7,9,-1,11,13,15,17,19,-1,21,23,-1,25,27,29,31,33,-1,35,37,-1,-1,-1,-1,-1,-1,-1,-1,-1,-1,-1,-1,-1,-1,-1,-1],"loss_changes":[3.1285835E1,7.962018E0,3.6843758E0,7.0591297E0,4.687629E0,0E0,1.8647289E0,3.3782895E0,1.2078037E0,5.0122795E0,3.4399137E0,0E0,8.012028E-1,3.9226606E0,0E0,8.65819E-1,2.502224E0,3.1023936E0,4.861164E0,1.583915E0,0E0,1.1344843E0,8.639355E-1,0E0,0E0,0E0,0E0,0E0,0E0,0E0,0E0,0E0,0E0,0E0,0E0,0E0,0E0,0E0,0E0],"parents":[2147483647,0,0,1,1,2,2,3,3,4,4,6,6,7,7,8,8,9,9,10,10,12,12,13,13,15,15,16,16,17,17,18,18,19,19,21,21,22,22],"right_children":[2,4,6,8,10,-1,12,14,16,18,20,-1,22,24,-1,26,28,30,32,34,-1,36,38,-1,-1,-1,-1,-1,-1,-1,-1,-1,-1,-1,-1,-1,-1,-1,-1],"split_conditions":[5.319554E-1,-6.5E-1,-3E-1,1.300215E0,1.60559E0,-9.219046E-3,2.5E-1,1.716925E0,1.0101122E0,1.2738566E0,1.8022966E0,-6.985005E-4,9.482056E-1,-2.190856E-1,-1.8496571E-2,1.2257009E0,1.3333334E0,3.447844E-1,1.6666666E0,1.78571E0,-4.07546E-2,5.78901E-1,7.788636E-1,-1.5709033E-2,3.3347137E-2,-1.6146177E-2,-3.9090883E-2,-2.537635E-2,4.7123465E-3,-2.053838E-3,-2.6576875E-2,5.842992E-3,4.113963E-2,-1.2949253E-2,5.5003376E-3,4.5368582E-2,2.0824706E-2,1.4537199E-2,4.0213387E-2],"split_indices":[8,9,9,4,1,0,6,1,5,1,4,0,8,8,0,1,3,8,2,5,0,8,4,0,0,0,0,0,0,0,0,0,0,0,0,0,0,0,0],"split_type":[0,0,0,0,0,0,0,0,0,0,0,0,0,0,0,0,0,0,0,0,0,0,0,0,0,0,0,0,0,0,0,0,0,0,0,0,0,0,0],"sum_hessian":[4.5127966E2,3.572237E2,9.405598E1,1.06841354E2,2.5038232E2,6.956976E0,8.7099E1,2.6282791E1,8.055856E1,1.7650621E2,7.387613E1,5.4690456E0,8.162995E1,1.637705E1,9.905741E0,3.11135E1,4.9445065E1,9.5658585E1,8.084762E1,6.497279E1,8.903335E0,5.026111E1,3.1368845E1,5.4595737E0,1.0917477E1,7.417902E0,2.3695599E1,4.1533703E1,7.911363E0,8.128161E1,1.4376982E1,7.042478E1,1.0422836E1,5.057205E1,1.44007435E1,5.474075E0,4.4787033E1,5.4727883E0,2.5896057E1],"tree_param":{"num_deleted":"0","num_feature":"10","num_nodes":"39","size_leaf_vector":"1"}},{"base_weights":[1.445641E-2,6.810412E-2,-2.3870419E-1,5.2169263E-2,2.837289E-2,2.4162715E-2,-3.7264544E-1,6.461441E-2,-2.1522125E-2,2.5592142E-1,-2.8140754E-2,-4.5548913E-1,-1.8428196E-1,1.0713615E-2,1.8621038E-1,-1.4797457E-2,3.1626184E-2,-1.3740278E-2,-5.215908E-1,-1.7015873E-2,1.740382E-3,2.2162877E-3,-2.0445993E-2,3.0703696E-3,3.3100795E-2,-3.0633722E-2,-1.41047565E-2],"categories":[],"categories_nodes":[],"categories_segments":[],"categories_sizes":[],"default_left":[0,0,0,0,0,0,0,0,0,0,0,0,0,0,0,0,0,0,0,0,0,0,0,0,0,0,0],"id":4,"left_children":[1,3,5,7,-1,9,11,13,-1,15,-1,17,19,21,23,-1,-1,-1,25,-1,-1,-1,-1,-1,-1,-1,-1],"loss_changes":[4.6405454E0,2.2121296E0,2.1130157E0,1.6741977E0,0E0,3.0158236E0,5.3475666E-1,1.7551259E0,0E0,3.4755824E0,0E0,1.7743683E-1,4.832828E-1,2.6531053E0,4.845258E0,0E0,0E0,0E0,2.3182249E-1,0E0,0E0,0E0,0E0,0E0,0E0,0E0,0E0],"parents":[2147483647,0,0,1,1,2,2,3,3,5,5,6,6,7,7,9,9,11,11,12,12,13,13,14,14,18,18],"right_children":[2,4,6,8,-1,10,12,14,-1,16,-1,18,20,22,24,-1,-1,-1,26,-1,-1,-1,-1,-1,-1,-1,-1],"split_conditions":[6.442929E-1,5.78901E-1,1.6666666E0,5.319554E-1,2.837289E-2,1.25E0,1.2697222E0,4.12634E-2,-2.1522125E-2,7.55113E-1,-2.8140754E-2,8.73961E-1,2.6E0,1.6734922E0,1.5E0,-1.4797457E-2,3.1626184E-2,-1.3740278E-2,1.2E0,-1.7015873E-2,1.740382E-3,2.2162877E-3,-2.0445993E-2,3.0703696E-3,3.3100795E-2,-3.0633722E-2,-1.41047565E-2],"split_indices":[8,8,2,8,0,7,4,8,0,8,0,4,2,0,6,0,0,0,6,0,0,0,0,0,0,0,0],"split_type":[0,0,0,0,0,0,0,0,0,0,0,0,0,0,0,0,0,0,0,0,0,0,0,0,0,0,0],"sum_hessian":[3.394847E2,2.8072647E2,5.8758255E1,2.7311557E2,7.610905E0,2.0110304E1,3.864795E1,2.6709412E2,6.0214567E0,1.4822056E1,5.2882485E0,2.585749E1,1.2790459E1,1.858147E2,8.12794E1,6.098911E0,8.7231455E0,8.307351E0,1.755014E1,7.1470256E0,5.6434326E0,1.7286296E2,1.2951744E1,6.528446E1,1.5994947E1,1.1585737E1,5.9644036E0],"tree_param":{"num_deleted":"0","num_feature":"10","num_nodes":"27","size_leaf_vector":"1"}},{"base_weights":[-1.6777834E-2,2.019465E-1,-2.5500506E-1,6.0123616E-1,9.238721E-2,-1.2688509E-1,-4.4179988E-1,-1.4258352E-2,8.102136E-1,-3.6376417E-1,1.6967028E-1,-3.303769E-1,2.0940716E-3,2.124681E-3,-4.8023692E-1,5.4112846E-1,1.0433123E0,-5.368809E-1,4.69161E-3,1.270347E-1,5.2593958E-2,-1.1603519E-1,-3.2904264E-2,3.094278E-1,-2.6971337E-1,-3.3138525E-2,-3.872903E-1,4.096424E-2,7.9737445E-3,6.409528E-2,3.239031E-2,-3.166734E-2,-1.484863E-2,1.1767348E-2,-1.1396237E-2,-1.2688545E-2,1.08594615E-2,4.1752E-2,5.264961E-3,4.037077E-3,-2.163176E-2,-3.209077E-2,-1.411385E-2],"categories":[],"categories_nodes":[],"categories_segments":[],"categories_sizes":[],"default_left":[0,0,0,0,0,0,0,0,0,0,0,0,0,0,0,0,0,0,0,0,0,0,0,0,0,0,0,0,0,0,0,0,0,0,0,0,0,0,0,0,0,0,0],"id":5,"left_children":[1,3,5,7,9,11,13,-1,15,17,19,21,23,-1,25,27,29,31,-1,33,-1,35,-1,37,39,-1,41,-1,-1,-1,-1,-1,-1,-1,-1,-1,-1,-1,-1,-1,-1,-1,-1],"loss_changes":[1.9767826E1,8.598573E0,4.289091E0,8.087404E0,5.575778E0,2.8640928E0,1.3879128E0,0E0,1.6044827E0,1.870733E0,4.922969E0,2.8969493E0,5.74449E0,0E0,8.9941883E-1,1.7939138E0,8.164387E-1,2.0119333E-1,0E0,5.0276704E0,0E0,1.2854046E0,0E0,3.37452E0,2.1187806E0,0E0,1.0899687E0,0E0,0E0,0E0,0E0,0E0,0E0,0E0,0E0,0E0,0E0,0E0,0E0,0E0,0E0,0E0,0E0],"parents":[2147483647,0,0,1,1,2,2,3,3,4,4,5,5,6,6,8,8,9,9,10,10,11,11,12,12,14,14,15,15,16,16,17,17,19,19,21,21,23,23,24,24,26,26],"right_children":[2,4,6,8,10,12,14,-1,16,18,20,22,24,-1,26,28,30,32,-1,34,-1,36,-1,38,40,-1,42,-1,-1,-1,-1,-1,-1,-1,-1,-1,-1,-1,-1,-1,-1,-1,-1],"split_conditions":[-2.20768E-2,9.639944E-1,5.54607E-1,1.0773135E0,6.666667E-1,1.923794E-1,5.934992E-1,-1.4258352E-2,1.5008054E0,1.6748523E0,2.476916E0,1.5702164E0,1E-1,2.124681E-3,1.0099236E0,1.3059108E0,1.7555E0,-1.978762E-1,4.69161E-3,1.799701E0,5.2593958E-2,1.624098E0,-3.2904264E-2,1.2133576E0,3.022274E-1,-3.3138525E-2,1E-1,4.096424E-2,7.9737445E-3,6.409528E-2,3.239031E-2,-3.166734E-2,-1.484863E-2,1.1767348E-2,-1.1396237E-2,-1.2688545E-2,1.08594615E-2,4.1752E-2,5.264961E-3,4.037077E-3,-2.163176E-2,-3.209077E-2,-1.411385E-2],"split_indices":[8,5,8,1,7,8,1,0,1,1,1,1,9,0,1,1,1,8,0,1,0,5,0,1,8,0,9,0,0,0,0,0,0,0,0,0,0,0,0,0,0,0,0],"split_type":[0,0,0,0,0,0,0,0,0,0,0,0,0,0,0,0,0,0,0,0,0,0,0,0,0,0,0,0,0,0,0,0,0,0,0,0,0,0,0,0,0,0,0],"sum_hessian":[3.7738815E2,1.9682703E2,1.8056114E2,4.1412193E1,1.5541483E2,1.0809771E2,7.246343E1,7.83109E0,3.3581104E1,2.1979185E1,1.3343564E2,4.1329784E1,6.676792E1,5.3205647E0,6.714287E1,1.7129063E1,1.645204E1,1.5820681E1,6.158505E0,1.2837549E2,5.060163E0,2.5805477E1,1.5524309E1,3.1271128E1,3.5496796E1,2.0585434E1,4.655743E1,9.244689E0,7.8843737E0,8.863724E0,7.588316E0,1.0113958E1,5.706723E0,9.861967E1,2.9755814E1,1.8427183E1,7.378293E0,7.8828263E0,2.3388302E1,1.1425105E1,2.407169E1,1.2105376E1,3.4452057E1],"tree_param":{"num_deleted":"0","num_feature":"10","num_nodes":"43","size_leaf_vector":"1"}},{"base_weights":[-3.15683E-2,-2.782162E-1,2.4784571E-1,-4.8669684E-1,-1.4695013E-1,6.907267E-2,4.8307577E-1,-3.4988067E-1,-6.726589E-1,-3.625914E-1,-1.6929148E-2,1.6628334E-1,-2.914921E-1,6.417519E-2,5.4042757E-1,4.9896156E-3,-4.5208448E-1,-3.6730807E-2,-4.769598E-1,-1.6058828E-1,-5.937802E-1,3.7898716E-2,-3.2399584E-2,-2.9143034E-2,3.5222387E-1,-4.747442E-1,7.0542926E-3,-1.6322622E-2,2.2244673E-2,6.120965E-1,2.9821777E-1,-2.5646493E-2,-2.4161148E-3,-1.4106375E-2,-2.986489E-2,1.919357E-2,-1.7550435E-2,-3.5435107E-2,-7.4391724E-3,1.1689073E-2,-6.4114886E-3,-2.7222136E-2,6.11026E-3,3.1979408E-2,7.002099E-3,-3.3002E-2,-1.5220187E-2,6.475463E-3,3.29154E-2,-9.05881E-4,2.2580644E-2],"categories":[],"categories_nodes":[],"categories_segments":[],"categories_sizes":[],"default_left":[0,0,0,0,0,0,0,0,0,0,0,0,0,0,0,0,0,0,0,0,0,0,0,0,0,0,0,0,0,0,0,0,0,0,0,0,0,0,0,0,0,0,0,0,0,0,0,0,0,0,0],"id":6,"left_children":[1,3,5,7,9,11,13,15,17,19,21,23,25,27,29,-1,31,-1,33,35,37,39,-1,41,43,45,-1,-1,-1,47,49,-1,-1,-1,-1,-1,-1,-1,-1,-1,-1,-1,-1,-1,-1,-1,-1,-1,-1,-1,-1],"loss_changes":[3.0600775E1,6.3809414E0,8.723865E0,2.071392E0,4.0906324E0,4.236602E0,2.1216812E0,2.5414991E0,1.0243797E-1,2.4691052E0,3.2147677E0,3.4532862E0,2.107172E0,1.9214563E0,1.185564E0,0E0,1.0669718E0,0E0,1.0888505E-1,3.3151927E0,1.1851063E0,2.8213215E0,0E0,3.7414517E0,2.8755808E0,3.7692928E-1,0E0,0E0,0E0,1.2498417E0,9.760308E-1,0E0,0E0,0E0,0E0,0E0,0E0,0E0,0E0,0E0,0E0,0E0,0E0,0E0,0E0,0E0,0E0,0E0,0E0,0E0,0E0],"parents":[2147483647,0,0,1,1,2,2,3,3,4,4,5,5,6,6,7,7,8,8,9,9,10,10,11,11,12,12,13,13,14,14,16,16,18,18,19,19,20,20,21,21,23,23,24,24,25,25,29,29,30,30],"right_children":[2,4,6,8,10,12,14,16,18,20,22,24,26,28,30,-1,32,-1,34,36,38,40,-1,42,44,46,-1,-1,-1,48,50,-1,-1,-1,-1,-1,-1,-1,-1,-1,-1,-1,-1,-1,-1,-1,-1,-1,-1,-1,-1],"split_conditions":[1.09698E-2,-6.5E-1,5.416456E-1,1.934208E0,1.2668468E0,1.5E0,1.2E0,5E-1,1.3353297E0,0E0,2.061486E0,1.0891154E0,1.981698E0,1.5684388E0,1.429631E0,4.9896156E-3,1.25E0,-3.6730807E-2,1.3955102E0,1.2085108E0,1.3348988E0,1.3968852E0,-3.2399584E-2,1.0735468E0,1.2760172E0,1.1571994E0,7.0542926E-3,-1.6322622E-2,2.2244673E-2,6.590044E-1,3.3333334E-1,-2.5646493E-2,-2.4161148E-3,-1.4106375E-2,-2.986489E-2,1.919357E-2,-1.7550435E-2,-3.5435107E-2,-7.4391724E-3,1.1689073E-2,-6.4114886E-3,-2.7222136E-2,6.11026E-3,3.1979408E-2,7.002099E-3,-3.3002E-2,-1.5220187E-2,6.475463E-3,3.29154E-2,-9.05881E-4,2.2580644E-2],"split_indices":[8,9,8,4,5,6,2,2,5,9,1,4,0,5,1,0,2,0,0,1,0,4,0,1,4,5,0,0,0,1,9,0,0,0,0,0,0,0,0,0,0,0,0,0,0,0,0,0,0,0,0],"split_type":[0,0,0,0,0,0,0,0,0,0,0,0,0,0,0,0,0,0,0,0,0,0,0,0,0,0,0,0,0,0,0,0,0,0,0,0,0,0,0,0,0,0,0,0,0,0,0,0,0,0,0],"sum_hessian":[4.4202386E2,2.3478008E2,2.0724377E2,8.966453E1,1.4511554E2,1.18487686E2,8.8756096E1,5.331848E1,3.634605E1,5.3912437E1,9.120311E1,9.37507E1,2.4736988E1,1.0943456E1,7.781264E1,9.878588E0,4.343989E1,2.5514507E1,1.0831543E1,2.9676756E1,2.4235682E1,8.4777435E1,6.425674E0,4.6120556E1,4.7630146E1,1.7307549E1,7.429438E0,5.4717855E0,5.4716706E0,5.886698E1,1.8945652E1,3.7516003E1,5.9238887E0,5.4126673E0,5.418876E0,7.4265304E0,2.2250225E1,1.8790398E1,5.445284E0,3.8717842E1,4.605959E1,9.881033E0,3.623952E1,1.9375284E1,2.825486E1,6.912895E0,1.0394654E1,5.4766607E0,5.3390324E1,6.4748783E0,1.2470775E1],"tree_param":{"num_deleted":"0","num_feature":"10","num_nodes":"51","size_leaf_vector":"1"}},{"base_weights":[9.514516E-3,2.4369459E-1,-4.4732276E-2,1.4215724E-1,4.3768093E-2,2.957069E-2,-2.6323798E-1,6.7089505E-2,3.85137E-2,-3.42675E-2,1.7423543E-1,-1.0647867E-1,-4.5410788E-1,-1.3787887E-1,3.161616E-1,2.7597338E-2,-6.359095E-2,3.1459603E-1,-2.618332E-1,1.814294E-2,-2.5966048E-1,-5.2580225E-1,-3.667927E-3,1.2588537E-2,-1.3921156E-2,2.6168114E-2,-9.751376E-3,-2.8391412E-4,-1.2175713E-2,-9.484552E-3,2.299085E-2,-2.092736E-2,1.1335835E-3,1.7259835E-3,-3.0892093E-2,-1.1909259E-2,-2.925379E-2],"categories":[],"categories_nodes":[],"categories_segments":[],"categories_sizes":[],"default_left":[0,0,0,0,0,0,0,0,0,0,0,0,0,0,0,0,0,0,0,0,0,0,0,0,0,0,0,0,0,0,0,0,0,0,0,0,0],"id":7,"left_children":[1,3,5,7,-1,9,11,13,-1,15,17,19,21,23,25,-1,27,29,31,-1,33,35,-1,-1,-1,-1,-1,-1,-1,-1,-1,-1,-1,-1,-1,-1,-1],"loss_changes":[4.3834143E0,4.037531E0,4.558727E0,2.6405928E0,0E0,1.9460396E0,2.0829325E0,2.703317E0,0E0,2.554972E0,4.0292206E0,2.9999356E0,8.298898E-1,1.6733334E0,2.6253264E0,0E0,1.4626487E0,3.6929426E0,7.339022E-1,0E0,3.293518E0,3.1431293E-1,0E0,0E0,0E0,0E0,0E0,0E0,0E0,0E0,0E0,0E0,0E0,0E0,0E0,0E0,0E0],"parents":[2147483647,0,0,1,1,2,2,3,3,5,5,6,6,7,7,9,9,10,10,11,11,12,12,13,13,14,14,16,16,17,17,18,18,20,20,21,21],"right_children":[2,4,6,8,-1,10,12,14,-1,16,18,20,22,24,26,-1,28,30,32,-1,34,36,-1,-1,-1,-1,-1,-1,-1,-1,-1,-1,-1,-1,-1,-1,-1],"split_conditions":[7.5E-1,1.4581678E0,4.951402E-1,1.9564674E0,4.3768093E-2,2E0,1.25E0,1.4138626E0,3.85137E-2,6.871784E-1,2.5E0,1.3464414E0,2.6235807E0,6.666667E-1,2.2E0,2.7597338E-2,1.5E0,1.4395254E0,-4.5215E-1,1.814294E-2,1.3333334E0,0E0,-3.667927E-3,1.2588537E-2,-1.3921156E-2,2.6168114E-2,-9.751376E-3,-2.8391412E-4,-1.2175713E-2,-9.484552E-3,2.299085E-2,-2.092736E-2,1.1335835E-3,1.7259835E-3,-3.0892093E-2,-1.1909259E-2,-2.925379E-2],"split_indices":[3,0,8,5,0,7,7,4,0,0,7,5,0,7,6,0,7,4,8,0,9,9,0,0,0,0,0,0,0,0,0,0,0,0,0,0,0],"split_type":[0,0,0,0,0,0,0,0,0,0,0,0,0,0,0,0,0,0,0,0,0,0,0,0,0,0,0,0,0,0,0,0,0,0,0,0,0],"sum_hessian":[3.4319705E2,6.389104E1,2.7930603E2,5.6098534E1,7.792506E0,2.0907474E2,7.023129E1,5.1098446E1,5.0000873E0,1.4559096E2,6.3483784E1,3.941668E1,3.0814613E1,2.8275871E1,2.2822575E1,6.086721E0,1.3950423E2,4.8236206E1,1.5247577E1,9.362347E0,3.005433E1,2.561112E1,5.2034936E0,7.285607E0,2.0990265E1,1.6223057E1,6.5995173E0,1.0631555E2,3.3188675E1,1.0716479E1,3.7519726E1,9.528076E0,5.7195005E0,1.6997574E1,1.3056758E1,5.2336955E0,2.0377424E1],"tree_param":{"num_deleted":"0","num_feature":"10","num_nodes":"37","size_leaf_vector":"1"}},{"base_weights":[-3.591544E-2,3.5232365E-1,-1.297085E-1,2.6601184E-2,6.8950707E-1,-1.4604438E-2,-3.339822E-1,-1.2507747E-1,3.843657E-2,5.656139E-2,5.05999E-1,-4.1257456E-1,4.128141E-2,-3.7365478E-1,1.9351065E-2,1.771109E-2,-2.5455746E-1,9.4360125E-4,6.295503E-1,2.0830624E-3,-5.468273E-1,8.959325E-2,-3.454259E-1,-4.6242267E-1,-2.1718322E-1,7.73188E-4,-1.7737633E-2,1.7928246E-2,4.929937E-2,-3.1968143E-2,-1.4373873E-2,-5.077073E-3,1.0003189E-2,-6.234395E-3,-2.6522571E-2,-2.9690031E-2,-1.773611E-2,-1.573249E-2,1.4725446E-2],"categories":[],"categories_nodes":[],"categories_segments":[],"categories_sizes":[],"default_left":[0,0,0,0,0,0,0,0,0,0,0,0,0,0,0,0,0,0,0,0,0,0,0,0,0,0,0,0,0,0,0,0,0,0,0,0,0,0,0],"id":8,"left_children":[1,3,5,7,9,11,13,15,-1,-1,17,19,21,23,-1,-1,25,-1,27,-1,29,31,33,35,37,-1,-1,-1,-1,-1,-1,-1,-1,-1,-1,-1,-1,-1,-1],"loss_changes":[1.3452482E1,7.8791914E0,6.9846873E0,4.3303804E0,2.2883682E0,4.268992E0,3.2078142E0,2.0818174E0,0E0,0E0,1.5976582E0,1.463901E0,3.179812E0,1.3164968E0,0E0,0E0,7.04816E-1,0E0,1.7039642E0,0E0,2.5565386E-1,3.2006545E0,7.0676064E-1,6.977978E-1,2.0282702E0,0E0,0E0,0E0,0E0,0E0,0E0,0E0,0E0,0E0,0E0,0E0,0E0,0E0,0E0],"parents":[2147483647,0,0,1,1,2,2,3,3,4,4,5,5,6,6,7,7,10,10,11,11,12,12,13,13,16,16,18,18,20,20,21,21,22,22,23,23,24,24],"right_children":[2,4,6,8,10,12,14,16,-1,-1,18,20,22,24,-1,-1,26,-1,28,-1,30,32,34,36,38,-1,-1,-1,-1,-1,-1,-1,-1,-1,-1,-1,-1,-1,-1],"split_conditions":[-8E-1,1.7995168E0,1.5666746E0,2.441159E0,7.98919E-1,8.138282E-1,2.397568E0,-1.5E0,3.843657E-2,5.656139E-2,1.2257009E0,1.1734866E0,2.006412E0,1.4E0,1.9351065E-2,1.771109E-2,1.200579E0,9.4360125E-4,-1.25E0,2.0830624E-3,1.741112E0,1.2910503E0,1.2E0,7.3333335E-1,1.4803994E0,7.73188E-4,-1.7737633E-2,1.7928246E-2,4.929937E-2,-3.1968143E-2,-1.4373873E-2,-5.077073E-3,1.0003189E-2,-6.234395E-3,-2.6522571E-2,-2.9690031E-2,-1.773611E-2,-1.573249E-2,1.4725446E-2],"split_indices":[9,4,0,1,5,4,4,9,0,0,1,1,5,6,0,0,4,0,9,0,5,1,6,9,1,0,0,0,0,0,0,0,0,0,0,0,0,0,0],"split_type":[0,0,0,0,0,0,0,0,0,0,0,0,0,0,0,0,0,0,0,0,0,0,0,0,0,0,0,0,0,0,0,0,0,0,0,0,0,0,0],"sum_hessian":[3.6717526E2,7.090806E1,2.962672E2,3.661576E1,3.4292294E1,1.9017755E2,1.06089676E2,3.1092459E1,5.5233026E0,8.549177E0,2.5743116E1,2.2631727E1,1.6754582E2,1.0101327E2,5.0764112E0,6.243823E0,2.4848635E1,5.4415207E0,2.0301596E1,5.320346E0,1.731138E1,1.496217E2,1.7924112E1,6.3202534E1,3.7810734E1,6.95389E0,1.7894745E1,1.2672871E1,7.628725E0,1.1679059E1,5.6323223E0,5.4832325E1,9.4789375E1,8.9365635E0,8.98755E0,2.643836E1,3.6764175E1,3.2084408E1,5.726325E0],"tree_param":{"num_deleted":"0","num_feature":"10","num_nodes":"39","size_leaf_vector":"1"}},{"base_weights":[-7.2177383E-3,-1.4898086E-1,4.718644E-1,-3.4198663E-1,-2.0554062E-2,-1.270423E-2,5.362286E-1,-5.387682E-1,-1.8911093E-1,-8.8889435E-2,1.439699E-1,3.8383897E-2,4.708863E-1,-2.927968E-1,-6.359849E-1,9.206022E-2,-2.8559154E-1,-3.654477E-1,1.8235143E-2,-1.22123435E-1,3.5508153E-1,-3.8912245E-3,5.2796924E-1,2.3240827E-3,-2.1707388E-2,-1.5851974E-2,-3.5019524E-2,-6.592049E-3,3.0463252E-2,-2.7905768E-2,-7.970506E-3,-8.4940373E-4,-2.9184937E-2,5.631316E-3,-1.6188221E-2,8.676727E-3,-1.48202395E-2,2.5296902E-2,-6.8580743E-4,2.9231686E-2,1.2986698E-3],"categories":[],"categories_nodes":[],"categories_segments":[],"categories_sizes":[],"default_left":[0,0,0,0,0,0,0,0,0,0,0,0,0,0,0,0,0,0,0,0,0,0,0,0,0,0,0,0,0,0,0,0,0,0,0,0,0,0,0,0,0],"id":9,"left_children":[1,3,5,7,9,-1,11,13,15,17,19,-1,21,23,25,27,29,31,33,35,37,-1,39,-1,-1,-1,-1,-1,-1,-1,-1,-1,-1,-1,-1,-1,-1,-1,-1,-1,-1],"loss_changes":[3.0131804E1,8.478039E0,4.869913E0,4.0106993E0,2.3356776E0,0E0,1.0507317E0,1.2301216E0,2.1551983E0,4.3497534E0,3.4708505E0,0E0,2.4030037E0,9.136976E-1,6.324539E-1,2.4896379E0,1.9286208E0,3.1064796E0,3.47831E0,1.4806179E0,1.9140048E0,0E0,1.931345E0,0E0,0E0,0E0,0E0,0E0,0E0,0E0,0E0,0E0,0E0,0E0,0E0,0E0,0E0,0E0,0E0,0E0,0E0],"parents":[2147483647,0,0,1,1,2,2,3,3,4,4,6,6,7,7,8,8,9,9,10,10,12,12,13,13,14,14,15,15,16,16,17,17,18,18,19,19,20,20,22,22],"right_children":[2,4,6,8,10,-1,12,14,16,18,20,-1,22,24,26,28,30,32,34,36,38,-1,40,-1,-1,-1,-1,-1,-1,-1,-1,-1,-1,-1,-1,-1,-1,-1,-1,-1,-1],"split_conditions":[4.951402E-1,-5E-1,1E0,-6.37573E-1,1.4515606E0,-1.270423E-2,1.5E0,9.166175E-1,9.873482E-1,1.2455156E0,1E-1,3.8383897E-2,1.25E0,3.3333334E-1,-1.6E0,-1.1021906E-1,1.0274928E0,0E0,1.05943E-1,-2E-1,2.25E0,-3.8912245E-3,2E0,2.3240827E-3,-2.1707388E-2,-1.5851974E-2,-3.5019524E-2,-6.592049E-3,3.0463252E-2,-2.7905768E-2,-7.970506E-3,-8.4940373E-4,-2.9184937E-2,5.631316E-3,-1.6188221E-2,8.676727E-3,-1.48202395E-2,2.5296902E-2,-6.8580743E-4,2.9231686E-2,1.2986698E-3],"split_indices":[8,9,3,8,0,0,3,0,0,5,9,0,2,3,9,8,5,9,8,9,3,0,7,0,0,0,0,0,0,0,0,0,0,0,0,0,0,0,0,0,0],"split_type":[0,0,0,0,0,0,0,0,0,0,0,0,0,0,0,0,0,0,0,0,0,0,0,0,0,0,0,0,0,0,0,0,0,0,0,0,0,0,0,0,0],"sum_hessian":[4.4162656E2,3.4131775E2,1.0030882E2,1.3570743E2,2.0561032E2,7.929233E0,9.237959E1,5.822981E1,7.7477615E1,1.455963E2,6.0014015E1,1.797207E1,7.4407524E1,1.7631514E1,4.0598293E1,1.9805302E1,5.7672314E1,3.997734E1,1.05618965E2,2.6736195E1,3.327782E1,6.977056E0,6.7430466E1,5.3827343E0,1.2248779E1,7.8158174E0,3.278248E1,1.4341756E1,5.4635463E0,1.7168674E1,4.050364E1,1.581113E1,2.4166212E1,8.3299225E1,2.2319735E1,9.916954E0,1.681924E1,2.3353304E1,9.924517E0,6.0443123E1,6.987341E0],"tree_param":{"num_deleted":"0","num_feature":"10","num_nodes":"41","size_leaf_vector":"1"}},{"base_weights":[-1.4016344E-2,8.007026E-2,-1.5011875E-1,5.124878E-1,2.2594137E-2,-1.896987E-1,1.6511288E-1,-9.792419E-4,7.615265E-1,-1.2977469E-1,1.4617068E-1,-2.355934E-1,4.003338E-2,-1.3456113E-2,3.174545E-2,1.6227586E-2,5.5345774E-2,1.3044234E-1,-2.0058763E-1,-2.0092134E-1,2.1901423E-1,-3.7706867E-1,-1.316968E-1,1.1862038E-2,-1.3208343E-1,2.6326895E-2,-2.2980288E-2,-6.6915243E-3,-2.3163553E-2,-2.2527939E-2,1.1516559E-2,2.1151664E-2,1.8846531E-3,-1.1407009E-2,-2.5175363E-2,-1.9126758E-2,-8.3552516E-4,-1.4588736E-2,3.3520889E-3],"categories":[],"categories_nodes":[],"categories_segments":[],"categories_sizes":[],"default_left":[0,0,0,0,0,0,0,0,0,0,0,0,0,0,0,0,0,0,0,0,0,0,0,0,0,0,0,0,0,0,0,0,0,0,0,0,0,0,0],"id":10,"left_children":[1,3,5,7,9,11,13,-1,15,17,19,21,23,-1,-1,-1,-1,25,27,29,31,33,35,-1,37,-1,-1,-1,-1,-1,-1,-1,-1,-1,-1,-1,-1,-1,-1],"loss_changes":[4.458685E0,5.10748E0,1.8065412E0,3.2108145E0,3.4618728E0,1.3471327E0,3.517803E0,0E0,2.124113E0,1.5448033E0,2.6086054E0,1.506856E0,7.7741987E-1,0E0,0E0,0E0,0E0,4.504013E0,1.0809793E0,2.05416E0,3.1032066E0,7.193394E-1,1.7989626E0,0E0,4.1320693E-1,0E0,0E0,0E0,0E0,0E0,0E0,0E0,0E0,0E0,0E0,0E0,0E0,0E0,0E0],"parents":[2147483647,0,0,1,1,2,2,3,3,4,4,5,5,6,6,8,8,9,9,10,10,11,11,12,12,17,17,18,18,19,19,20,20,21,21,22,22,24,24],"right_children":[2,4,6,8,10,12,14,-1,16,18,20,22,24,-1,-1,-1,-1,26,28,30,32,34,36,-1,38,-1,-1,-1,-1,-1,-1,-1,-1,-1,-1,-1,-1,-1,-1],"split_conditions":[1.25E0,8.649206E-1,1.9823548E0,7.115516E-1,1.3719088E0,1.6694318E0,1.0800508E0,-9.792419E-4,1.083735E0,6.666667E-1,-1.4E0,1.300215E0,1.3216588E0,-1.3456113E-2,3.174545E-2,1.6227586E-2,5.5345774E-2,1.816002E0,1.2760172E0,1.1611668E0,-5E-1,1.0606579E0,1.4903562E0,1.1862038E-2,1.913714E0,2.6326895E-2,-2.2980288E-2,-6.6915243E-3,-2.3163553E-2,-2.2527939E-2,1.1516559E-2,2.1151664E-2,1.8846531E-3,-1.1407009E-2,-2.5175363E-2,-1.9126758E-2,-8.3552516E-4,-1.4588736E-2,3.3520889E-3],"split_indices":[2,4,5,4,4,1,4,0,0,7,9,4,5,0,0,0,0,5,4,5,9,4,0,0,1,0,0,0,0,0,0,0,0,0,0,0,0,0,0],"split_type":[0,0,0,0,0,0,0,0,0,0,0,0,0,0,0,0,0,0,0,0,0,0,0,0,0,0,0,0,0,0,0,0,0,0,0,0,0,0,0],"sum_hessian":[3.4624887E2,2.0496782E2,1.4128107E2,2.3118776E1,1.8184903E2,1.2587468E2,1.5406385E1,7.6646223E0,1.5454154E1,8.141494E1,1.004341E2,1.0489398E2,2.0980698E1,8.228182E0,7.178203E0,7.678826E0,7.775328E0,1.7235909E1,6.417903E1,1.711667E1,8.331742E1,4.330144E1,6.1592537E1,9.60134E0,1.1379358E1,1.0377316E1,6.858591E0,5.2377525E1,1.1801508E1,1.0812763E1,6.3039083E0,3.8577602E1,4.4739822E1,2.1170113E1,2.213133E1,1.8628458E1,4.296408E1,6.056766E0,5.3225923E0],"tree_param":{"num_deleted":"0","num_feature":"10","num_nodes":"39","size_leaf_vector":"1"}},{"base_weights":[3.3989258E-3,1.0072511E-1,-4.4222862E-1,9.591973E-3,4.3462557E-1,-3.1942923E-2,-3.7121558E-1,-3.0000828E-2,7.4120903E-1,6.821612E-1,1.1153249E-1,-4.7611588E-1,-6.775413E-2,-2.5334135E-2,-1.051892E-2,4.777881E-2,1.8765248E-2,8.381988E-1,1.2460832E-2,-8.322255E-2,2.5991026E-2,4.0068952E-3,-5.6776017E-1,6.893046E-3,-1.49351945E-2,1.5909817E-2,-2.1206103E-3,2.3924874E-2,5.3910345E-2,1.3210452E-2,-1.626411E-2,-3.2569606E-2,-1.6696718E-2],"categories":[],"categories_nodes":[],"categories_segments":[],"categories_sizes":[],"default_left":[0,0,0,0,0,0,0,0,0,0,0,0,0,0,0,0,0,0,0,0,0,0,0,0,0,0,0,0,0,0,0,0,0],"id":11,"left_children":[1,3,5,7,9,-1,11,13,15,17,19,21,23,-1,25,-1,-1,27,-1,29,-1,-1,31,-1,-1,-1,-1,-1,-1,-1,-1,-1,-1],"loss_changes":[1.5725243E1,9.050168E0,6.7037296E-1,6.822926E0,5.0246E0,0E0,1.563735E0,2.0719464E0,5.898323E-1,2.2173862E0,2.3382156E0,1.9363165E0,7.081276E-1,0E0,2.277179E0,0E0,0E0,1.7267265E0,0E0,1.8017809E0,0E0,0E0,4.0762997E-1,0E0,0E0,0E0,0E0,0E0,0E0,0E0,0E0,0E0,0E0],"parents":[2147483647,0,0,1,1,2,2,3,3,4,4,6,6,7,7,8,8,9,9,10,10,11,11,12,12,14,14,17,17,19,19,22,22],"right_children":[2,4,6,8,10,-1,12,14,16,18,20,22,24,-1,26,-1,-1,28,-1,30,-1,-1,32,-1,-1,-1,-1,-1,-1,-1,-1,-1,-1],"split_conditions":[5.54607E-1,1.9123372E0,1.5E0,2.404826E0,-6.5E-1,-3.1942923E-2,1.3491756E0,4E-1,2.541982E0,1.7319794E0,1.4587028E0,6E-1,1.0764024E0,-2.5334135E-2,9.164016E-1,4.777881E-2,1.8765248E-2,-1.0680958E0,1.2460832E-2,-9.424158E-1,2.5991026E-2,4.0068952E-3,1.5E0,6.893046E-3,-1.49351945E-2,1.5909817E-2,-2.1206103E-3,2.3924874E-2,5.3910345E-2,1.3210452E-2,-1.626411E-2,-3.2569606E-2,-1.6696718E-2],"split_indices":[8,4,3,1,9,0,1,2,1,1,1,6,4,0,1,0,0,8,0,8,0,0,9,0,0,0,0,0,0,0,0,0,0],"split_type":[0,0,0,0,0,0,0,0,0,0,0,0,0,0,0,0,0,0,0,0,0,0,0,0,0,0,0,0,0,0,0,0,0],"sum_hessian":[3.6054617E2,2.9655234E2,6.3993813E1,2.3377554E2,6.277681E1,1.4857667E1,4.9136147E1,2.226836E2,1.1091938E1,3.4915318E1,2.7861492E1,3.6091217E1,1.304493E1,7.7617536E0,2.1492184E2,5.9780893E0,5.113849E0,2.4977232E1,9.938086E0,1.940256E1,8.458933E0,5.122814E0,3.0968403E1,7.114207E0,5.930723E0,1.8214378E1,1.9670747E2,1.1194162E1,1.3783071E1,7.929596E0,1.1472962E1,2.1494661E1,9.473742E0],"tree_param":{"num_deleted":"0","num_feature":"10","num_nodes":"33","size_leaf_vector":"1"}},{"base_weights":[-6.9361343E-3,1.2634647E-1,-2.8354278E-1,7.6903915E-4,4.3761602E-1,-4.2736316E-1,7.069612E-2,-1.9942234E-1,7.605423E-2,-2.8514715E-3,5.053596E-1,-2.7435166E-1,-6.09732E-1,2.0282502E-1,-2.3065843E-2,-3.8178405E-1,4.8841707E-2,1.7863876E-1,-8.1049286E-2,1.1399819E-1,5.7950985E-1,-4.8970684E-1,-5.2690648E-2,-1.297213E-2,-6.791516E-1,5.4025177E-2,2.6461074E-2,-2.4615534E-2,-5.6138868E-3,3.1140858E-2,-1.0569133E-2,-9.921709E-3,1.12117E-2,-1.751763E-2,-1.3781147E-3,2.130921E-2,-9.627879E-3,3.3848625E-2,2.0177824E-2,-3.3655972E-3,-2.9667431E-2,1.4534925E-2,-1.3087364E-2,-2.4987383E-2,-3.8955327E-2,-2.03378E-2,1.1663675E-2],"categories":[],"categories_nodes":[],"categories_segments":[],"categories_sizes":[],"default_left":[0,0,0,0,0,0,0,0,0,0,0,0,0,0,0,0,0,0,0,0,0,0,0,0,0,0,0,0,0,0,0,0,0,0,0,0,0,0,0,0,0,0,0,0,0,0,0],"id":12,"left_children":[1,3,5,7,9,11,13,15,17,-1,19,21,23,25,-1,27,29,31,33,35,37,39,41,-1,43,45,-1,-1,-1,-1,-1,-1,-1,-1,-1,-1,-1,-1,-1,-1,-1,-1,-1,-1,-1,-1,-1],"loss_changes":[1.6594273E1,1.1874233E1,7.4865046E0,3.2926257E0,2.9550285E0,2.7413445E0,3.1246297E0,2.7217805E0,2.5730388E0,0E0,2.165783E0,2.7666273E0,9.6031E-1,1.6827279E0,0E0,9.7344685E-1,4.0406218E0,1.7010877E0,9.035845E-1,1.3736107E0,8.3141327E-1,1.253705E0,2.2259402E0,0E0,2.9904366E-1,2.1858354E0,0E0,0E0,0E0,0E0,0E0,0E0,0E0,0E0,0E0,0E0,0E0,0E0,0E0,0E0,0E0,0E0,0E0,0E0,0E0,0E0,0E0],"parents":[2147483647,0,0,1,1,2,2,3,3,4,4,5,5,6,6,7,7,8,8,10,10,11,11,12,12,13,13,15,15,16,16,17,17,18,18,19,19,20,20,21,21,22,22,24,24,25,25],"right_children":[2,4,6,8,10,12,14,16,18,-1,20,22,24,26,-1,28,30,32,34,36,38,40,42,-1,44,46,-1,-1,-1,-1,-1,-1,-1,-1,-1,-1,-1,-1,-1,-1,-1,-1,-1,-1,-1,-1,-1],"split_conditions":[1.5745445E0,1.643152E0,1.6666666E0,1.2240586E0,1.2E0,1.939718E0,1.5156268E0,1.5E0,1.60559E0,-2.8514715E-3,8.990718E-1,1.717145E0,1.0838686E0,1.2502774E0,-2.3065843E-2,1.7637258E0,1.75E0,7.74496E-1,1.6748523E0,1.0838686E0,1.315674E0,1.2E0,1.7995168E0,-1.297213E-2,-1.5E0,9.603226E-1,2.6461074E-2,-2.4615534E-2,-5.6138868E-3,3.1140858E-2,-1.0569133E-2,-9.921709E-3,1.12117E-2,-1.751763E-2,-1.3781147E-3,2.130921E-2,-9.627879E-3,3.3848625E-2,2.0177824E-2,-3.3655972E-3,-2.9667431E-2,1.4534925E-2,-1.3087364E-2,-2.4987383E-2,-3.8955327E-2,-2.03378E-2,1.1663675E-2],"split_indices":[4,0,3,5,2,4,1,7,1,0,4,4,1,1,0,1,7,0,1,1,4,7,4,0,9,5,0,0,0,0,0,0,0,0,0,0,0,0,0,0,0,0,0,0,0,0,0],"split_type":[0,0,0,0,0,0,0,0,0,0,0,0,0,0,0,0,0,0,0,0,0,0,0,0,0,0,0,0,0,0,0,0,0,0,0,0,0,0,0,0,0,0,0,0,0,0,0],"sum_hessian":[4.481419E2,3.0278735E2,1.4535454E2,2.1646144E2,8.632593E1,1.0323491E2,4.211962E1,5.8706276E1,1.5775516E2,1.0417597E1,7.590833E1,5.7497555E1,4.5737354E1,3.4235718E1,7.883905E0,3.353524E1,2.5171036E1,9.535423E1,6.2400925E1,1.2495435E1,6.34129E1,2.8550247E1,2.8947308E1,8.348481E0,3.7388874E1,2.4315926E1,9.919791E0,2.3195765E1,1.0339474E1,7.4173164E0,1.775372E1,9.92471E0,8.542953E1,9.420272E0,5.298065E1,5.997525E0,6.4979095E0,3.8976124E1,2.4436773E1,5.9500647E0,2.2600182E1,1.0806462E1,1.8140846E1,1.5524496E1,2.1864378E1,6.454517E0,1.7861408E1],"tree_param":{"num_deleted":"0","num_feature":"10","num_nodes":"47","size_leaf_vector":"1"}},{"base_weights":[-3.3005977E-3,2.714836E-1,-6.520468E-2,1.5702242E-1,4.6771724E-2,1.0866168E-2,-2.9904336E-1,2.2647929E-1,-2.0440612E-2,-4.7050085E-2,3.9711037E-1,1.0245241E-1,-4.059918E-1,-1.1322692E-1,3.2480997E-1,-1.699127E-2,-4.1153133E-1,2.5932327E-1,3.6302026E-2,1.8282602E-2,-1.3541761E-2,-5.074735E-1,-2.5518462E-1,-1.4124203E-2,4.7796573E-3,2.4825916E-2,4.815024E-3,4.6364387E-4,-1.8304711E-2,-4.999812E-3,-2.9723013E-2,2.8472407E-2,-2.1706771E-2,-6.5172217E-3,-2.947743E-2,2.886351E-3,-2.3586553E-2],"categories":[],"categories_nodes":[],"categories_segments":[],"categories_sizes":[],"default_left":[0,0,0,0,0,0,0,0,0,0,0,0,0,0,0,0,0,0,0,0,0,0,0,0,0,0,0,0,0,0,0,0,0,0,0,0,0],"id":13,"left_children":[1,3,5,7,-1,9,11,13,-1,15,17,19,21,23,25,27,29,31,-1,-1,-1,33,35,-1,-1,-1,-1,-1,-1,-1,-1,-1,-1,-1,-1,-1,-1],"loss_changes":[5.8038874E0,4.6208224E0,4.955918E0,2.2428515E0,0E0,4.739735E0,2.977663E0,1.6860538E0,0E0,2.013494E0,1.0637593E0,1.5905762E0,6.9992256E-1,4.449523E-1,1.4647403E0,1.575062E0,7.388189E-1,4.76886E0,0E0,0E0,0E0,8.945942E-1,1.6406927E0,0E0,0E0,0E0,0E0,0E0,0E0,0E0,0E0,0E0,0E0,0E0,0E0,0E0,0E0],"parents":[2147483647,0,0,1,1,2,2,3,3,5,5,6,6,7,7,9,9,10,10,11,11,12,12,13,13,14,14,15,15,16,16,17,17,21,21,22,22],"right_children":[2,4,6,8,-1,10,12,14,-1,16,18,20,22,24,26,28,30,32,-1,-1,-1,34,36,-1,-1,-1,-1,-1,-1,-1,-1,-1,-1,-1,-1,-1,-1],"split_conditions":[7.5E-1,1.4581678E0,4.951402E-1,2.164068E-1,4.6771724E-2,2.86541E-1,8.138282E-1,-1.4E0,-2.0440612E-2,2.049076E-1,1.755324E0,1.3333334E0,1.195547E0,1.0037712E0,-2.109568E-1,2.524092E0,1.3333334E0,1.5168366E0,3.6302026E-2,1.8282602E-2,-1.3541761E-2,1.5E0,2.217296E0,-1.4124203E-2,4.7796573E-3,2.4825916E-2,4.815024E-3,4.6364387E-4,-1.8304711E-2,-4.999812E-3,-2.9723013E-2,2.8472407E-2,-2.1706771E-2,-6.5172217E-3,-2.947743E-2,2.886351E-3,-2.3586553E-2],"split_indices":[3,0,8,8,0,8,4,9,0,8,0,9,4,0,8,4,3,0,0,0,0,3,0,0,0,0,0,0,0,0,0,0,0,0,0,0,0],"split_type":[0,0,0,0,0,0,0,0,0,0,0,0,0,0,0,0,0,0,0,0,0,0,0,0,0,0,0,0,0,0,0,0,0,0,0,0,0],"sum_hessian":[3.3915848E2,6.1735786E1,2.774227E2,5.371256E1,8.023228E0,2.100456E2,6.7377106E1,4.83743E1,5.3382587E0,1.834204E2,2.6625195E1,1.4181246E1,5.3195858E1,1.0825074E1,3.7549225E1,1.7041302E2,1.3007367E1,2.002515E1,6.6000457E0,8.329026E0,5.8522186E0,3.0384417E1,2.2811443E1,5.78408E0,5.040994E0,2.0769554E1,1.677967E1,1.5939468E2,1.1018341E1,5.3843136E0,7.6230536E0,1.3960597E1,6.064553E0,5.8932886E0,2.4491129E1,9.629763E0,1.318168E1],"tree_param":{"num_deleted":"0","num_feature":"10","num_nodes":"37","size_leaf_vector":"1"}},{"base_weights":[1.836645E-3,1.3730727E-1,-3.0403912E-1,3.227117E-2,4.184456E-1,-3.653767E-1,5.8416877E-4,5.286092E-1,-1.1396832E-2,2.28368E-1,6.578973E-1,-2.3699425E-1,-4.8133212E-1,2.4542162E-2,-3.6818498E-1,2.8210399E-3,4.351377E-2,4.201334E-2,-3.597825E-1,-3.48376E-2,6.183531E-1,9.422409E-1,3.5985163E-1,-3.5468748E-1,1.594559E-2,-7.3064524E-3,-5.2454853E-1,-2.892897E-2,-3.5108775E-3,-1.7352961E-2,4.8930384E-3,-2.446232E-2,-8.425758E-3,9.327656E-3,-1.1136564E-2,3.2612015E-3,4.321787E-2,6.761678E-2,8.798677E-3,-1.2783328E-3,2.8463855E-2,-2.4347326E-2,-1.08146565E-2,-2.8991256E-2,-9.927281E-3],"categories":[],"categories_nodes":[],"categories_segments":[],"categories_sizes":[],"default_left":[0,0,0,0,0,0,0,0,0,0,0,0,0,0,0,0,0,0,0,0,0,0,0,0,0,0,0,0,0,0,0,0,0,0,0,0,0,0,0,0,0,0,0,0,0],"id":14,"left_children":[1,3,5,7,9,11,13,15,17,19,21,23,25,-1,27,-1,-1,29,31,33,35,37,39,41,-1,-1,43,-1,-1,-1,-1,-1,-1,-1,-1,-1,-1,-1,-1,-1,-1,-1,-1,-1,-1],"loss_changes":[1.5112419E1,7.4501557E0,2.0919456E0,4.0176516E0,2.9748926E0,1.2731581E0,3.753482E0,2.3689957E0,3.1988347E0,4.1078196E0,2.190918E0,3.1353807E0,6.1858845E-1,0E0,7.022364E-1,0E0,0E0,3.2770047E0,4.833386E-1,1.0696299E0,2.133655E0,4.3687935E0,1.3216224E0,6.011305E-1,0E0,0E0,6.44001E-1,0E0,0E0,0E0,0E0,0E0,0E0,0E0,0E0,0E0,0E0,0E0,0E0,0E0,0E0,0E0,0E0,0E0,0E0],"parents":[2147483647,0,0,1,1,2,2,3,3,4,4,5,5,6,6,7,7,8,8,9,9,10,10,11,11,12,12,14,14,17,17,18,18,19,19,20,20,21,21,22,22,23,23,26,26],"right_children":[2,4,6,8,10,12,14,16,18,20,22,24,26,-1,28,-1,-1,30,32,34,36,38,40,42,-1,-1,44,-1,-1,-1,-1,-1,-1,-1,-1,-1,-1,-1,-1,-1,-1,-1,-1,-1,-1],"split_conditions":[2.780208E-1,1.882222E0,1.8E0,8.729872E-1,1.495547E0,1.0031428E0,5.416456E-1,7.597722E-1,1.9313895E0,2.25E0,1.767098E0,9.5062476E-1,6.666667E-1,2.4542162E-2,1.202719E0,2.8210399E-3,4.351377E-2,5E-1,1.4E0,1.1653774E0,1.013282E0,2.26044E0,2E0,1.5584244E0,1.594559E-2,-7.3064524E-3,1.6E0,-2.892897E-2,-3.5108775E-3,-1.7352961E-2,4.8930384E-3,-2.446232E-2,-8.425758E-3,9.327656E-3,-1.1136564E-2,3.2612015E-3,4.321787E-2,6.761678E-2,8.798677E-3,-1.2783328E-3,2.8463855E-2,-2.4347326E-2,-1.08146565E-2,-2.8991256E-2,-9.927281E-3],"split_indices":[8,4,7,5,1,4,8,5,5,7,1,4,6,0,5,0,0,2,6,5,1,4,6,5,0,0,7,0,0,0,0,0,0,0,0,0,0,0,0,0,0,0,0,0,0],"split_type":[0,0,0,0,0,0,0,0,0,0,0,0,0,0,0,0,0,0,0,0,0,0,0,0,0,0,0,0,0,0,0,0,0,0,0,0,0,0,0,0,0,0,0,0,0],"sum_hessian":[3.6269922E2,2.5175117E2,1.1094805E2,1.8408861E2,6.766257E1,9.218638E1,1.8761675E1,1.3988437E1,1.7010017E2,3.8809315E1,2.8853254E1,4.519339E1,4.6992985E1,7.912025E0,1.084965E1,6.361656E0,7.6267805E0,1.482515E2,2.1848677E1,2.371467E1,1.5094643E1,1.3659922E1,1.5193334E1,3.759579E1,7.5975995E0,5.867069E0,4.1125916E1,5.8073397E0,5.04231E0,1.795436E1,1.3029713E2,1.2100347E1,9.748329E0,1.0890171E1,1.2824499E1,5.0361743E0,1.0058469E1,8.399695E0,5.260226E0,5.6581745E0,9.535158E0,1.79362E1,1.9659592E1,3.449791E1,6.628007E0],"tree_param":{"num_deleted":"0","num_feature":"10","num_nodes":"45","size_leaf_vector":"1"}},{"base_weights":[7.3994E-3,-2.0143683E-1,2.5698188E-1,6.358516E-2,-2.5986502E-1,1.0046654E-1,4.567509E-1,-1.50559E-1,1.8684405E-1,1.2378841E-2,-2.862564E-1,-7.485715E-2,2.4142939E-1,-1.2627007E-2,5.15225E-1,9.926795E-3,-2.0780455E-2,-1.285659E-1,5.083879E-1,-2.2594926E-1,-5.3362215E-1,-3.0521581E-2,5.669491E-2,3.7023565E-1,-1.9248278E-1,4.3803505E-3,5.506284E-1,8.279953E-3,-2.5278924E-2,3.620566E-2,6.5601706E-3,-2.179332E-2,-7.529752E-3,-7.58354E-3,-3.0887654E-2,7.93673E-3,-2.0570746E-2,3.573043E-2,1.3016273E-2,-2.0194646E-2,8.080223E-3,3.3033516E-2,2.146574E-2],"categories":[],"categories_nodes":[],"categories_segments":[],"categories_sizes":[],"default_left":[0,0,0,0,0,0,0,0,0,0,0,0,0,0,0,0,0,0,0,0,0,0,0,0,0,0,0,0,0,0,0,0,0,0,0,0,0,0,0,0,0,0,0],"id":15,"left_children":[1,3,5,7,9,11,13,15,17,-1,19,21,23,-1,25,-1,-1,27,29,31,33,-1,35,37,39,-1,41,-1,-1,-1,-1,-1,-1,-1,-1,-1,-1,-1,-1,-1,-1,-1,-1],"loss_changes":[2.3215876E1,3.7719288E0,6.298151E0,1.205694E0,2.7346916E0,2.861381E0,3.8152466E0,1.641749E0,2.982274E0,0E0,2.7069721E0,3.700992E0,3.6488185E0,0E0,1.1994286E0,0E0,0E0,1.782468E0,1.0802753E0,2.372294E0,1.0765429E0,0E0,2.1044989E0,1.6951232E0,1.2113276E0,0E0,7.2989845E-1,0E0,0E0,0E0,0E0,0E0,0E0,0E0,0E0,0E0,0E0,0E0,0E0,0E0,0E0,0E0,0E0],"parents":[2147483647,0,0,1,1,2,2,3,3,4,4,5,5,6,6,7,7,8,8,10,10,11,11,12,12,14,14,17,17,18,18,19,19,20,20,22,22,23,23,24,24,26,26],"right_children":[2,4,6,8,10,12,14,16,18,-1,20,22,24,-1,26,-1,-1,28,30,32,34,-1,36,38,40,-1,42,-1,-1,-1,-1,-1,-1,-1,-1,-1,-1,-1,-1,-1,-1,-1,-1],"split_conditions":[6.897E-3,1E0,5.54607E-1,8.458638E-1,8.22358E-1,1.103987E0,1E0,5E-1,1.7274956E0,1.2378841E-2,2.20914E0,1.0735468E0,2E0,-1.2627007E-2,5.934992E-1,9.926795E-3,-2.0780455E-2,1.3864655E0,1.0934858E0,8E-1,1.0838686E0,-3.0521581E-2,1.933772E0,9.53164E-2,1.1416514E0,4.3803505E-3,1.2133576E0,8.279953E-3,-2.5278924E-2,3.620566E-2,6.5601706E-3,-2.179332E-2,-7.529752E-3,-7.58354E-3,-3.0887654E-2,7.93673E-3,-2.0570746E-2,3.573043E-2,1.3016273E-2,-2.0194646E-2,8.080223E-3,3.3033516E-2,2.146574E-2],"split_indices":[8,7,8,0,1,4,3,2,5,0,4,1,7,0,1,0,0,5,0,3,1,0,1,8,5,0,1,0,0,0,0,0,0,0,0,0,0,0,0,0,0,0,0],"split_type":[0,0,0,0,0,0,0,0,0,0,0,0,0,0,0,0,0,0,0,0,0,0,0,0,0,0,0,0,0,0,0,0,0,0,0,0,0,0,0,0,0,0,0],"sum_hessian":[4.4342215E2,2.4152274E2,2.0189941E2,4.3612823E1,1.9790991E2,1.140479E2,8.785151E1,1.5851569E1,2.7761253E1,9.369845E0,1.8854007E2,5.1037968E1,6.3009933E1,6.4381275E0,8.1413376E1,6.949457E0,8.902112E0,1.4317268E1,1.3443984E1,1.5312259E2,3.5417484E1,9.346458E0,4.169151E1,4.8700115E1,1.4309817E1,6.490677E0,7.49227E1,8.357258E0,5.9600105E0,7.9673734E0,5.4766107E0,3.9183456E1,1.1393913E2,6.899012E0,2.851847E1,3.47726E1,6.9189105E0,1.0451502E1,3.8248615E1,8.872045E0,5.4377723E0,3.6955196E1,3.7967506E1],"tree_param":{"num_deleted":"0","num_feature":"10","num_nodes":"43","size_leaf_vector":"1"}},{"base_weights":[-4.5164336E-2,-1.114155E-3,-2.7533695E-1,-6.520713E-2,1.6694355E-1,-8.603606E-2,-5.341459E-1,-2.1708326E-2,-3.9552978E-1,3.8042867E-1,3.5853844E-2,9.276312E-2,-3.7212145E-1,-3.0231437E-2,-1.7468922E-2,-9.536263E-2,1.01767376E-1,-5.16529E-1,-4.2568236E-3,1.5680447E-1,4.6161983E-2,-1.3207331E-1,2.849464E-1,-2.365628E-2,4.8306495E-1,-2.854847E-2,-3.4034755E-3,1.1716621E-3,-1.4040771E-2,-1.1725067E-3,2.4570925E-2,-1.1619993E-2,-3.0788234E-2,-1.0590394E-2,1.680096E-2,-1.0899939E-2,1.2356894E-2,2.4419174E-2,-1.2354847E-2,5.7556867E-3,3.538761E-2],"categories":[],"categories_nodes":[],"categories_segments":[],"categories_sizes":[],"default_left":[0,0,0,0,0,0,0,0,0,0,0,0,0,0,0,0,0,0,0,0,0,0,0,0,0,0,0,0,0,0,0,0,0,0,0,0,0,0,0,0,0],"id":16,"left_children":[1,3,5,7,9,11,13,15,17,19,21,23,25,-1,-1,27,29,31,-1,33,-1,35,37,-1,39,-1,-1,-1,-1,-1,-1,-1,-1,-1,-1,-1,-1,-1,-1,-1,-1],"loss_changes":[3.4192963E0,3.0709531E0,2.6081471E0,2.9568055E0,2.1892421E0,1.6959414E0,8.428812E-2,1.6778455E0,8.5577726E-1,3.4776278E0,2.1237717E0,4.820044E0,7.284788E-1,0E0,0E0,2.5490956E0,3.3789198E0,3.3734894E-1,0E0,1.5469398E0,0E0,1.0468031E0,2.3286734E0,0E0,9.765675E-1,0E0,0E0,0E0,0E0,0E0,0E0,0E0,0E0,0E0,0E0,0E0,0E0,0E0,0E0,0E0,0E0],"parents":[2147483647,0,0,1,1,2,2,3,3,4,4,5,5,6,6,7,7,8,8,9,9,10,10,11,11,12,12,15,15,16,16,17,17,19,19,21,21,22,22,24,24],"right_children":[2,4,6,8,10,12,14,16,18,20,22,24,26,-1,-1,28,30,32,-1,34,-1,36,38,-1,40,-1,-1,-1,-1,-1,-1,-1,-1,-1,-1,-1,-1,-1,-1,-1,-1],"split_conditions":[6.442929E-1,1.7050166E0,1.25E0,1.5901674E0,1.2137651E0,1.3400551E0,1.2697222E0,1.75E0,1.5E0,-4.919086E-2,1.656223E0,6.666667E-1,1E0,-3.0231437E-2,-1.7468922E-2,1.25E0,1.3558376E0,1.095131E0,-4.2568236E-3,1.602414E0,4.6161983E-2,2.27987E-1,3.3333334E-1,-2.365628E-2,9.104944E-1,-2.854847E-2,-3.4034755E-3,1.1716621E-3,-1.4040771E-2,-1.1725067E-3,2.4570925E-2,-1.1619993E-2,-3.0788234E-2,-1.0590394E-2,1.680096E-2,-1.0899939E-2,1.2356894E-2,2.4419174E-2,-1.2354847E-2,5.7556867E-3,3.538761E-2],"split_indices":[8,1,7,1,5,1,4,7,6,8,5,6,7,0,0,7,5,4,0,4,0,8,9,0,1,0,0,0,0,0,0,0,0,0,0,0,0,0,0,0,0],"split_type":[0,0,0,0,0,0,0,0,0,0,0,0,0,0,0,0,0,0,0,0,0,0,0,0,0,0,0,0,0,0,0,0,0,0,0,0,0,0,0,0,0],"sum_hessian":[3.3626736E2,2.83094E2,5.3173378E1,2.0537944E2,7.7714554E1,3.148021E1,2.169317E1,1.8242268E2,2.2956762E1,2.8842035E1,4.887252E1,1.9788462E1,1.1691748E1,1.4058082E1,7.6350884E0,1.1440613E2,6.801655E1,1.603989E1,6.9168706E0,2.133956E1,7.5024757E0,2.9472948E1,1.939957E1,7.990718E0,1.1797744E1,6.538043E0,5.153705E0,7.0268036E1,4.41381E1,5.218598E1,1.5830567E1,5.0170617E0,1.1022829E1,6.9214725E0,1.4418087E1,2.4374952E1,5.0979953E0,1.4092928E1,5.306643E0,5.046252E0,6.7514915E0],"tree_param":{"num_deleted":"0","num_feature":"10","num_nodes":"41","size_leaf_vector":"1"}},{"base_weights":[-1.73864E-2,1.7940202E-1,-2.4251969E-1,4.2224008E-1,-1.8001704E-2,-1.1768209E-1,-4.2006418E-1,7.5601095E-1,3.466506E-1,-7.664621E-2,4.4890996E-2,-3.957541E-1,-6.314679E-3,3.964694E-3,-4.609027E-1,5.5222817E-2,2.2885486E-2,4.5476502E-1,-1.2536027E-1,-1.8623327E-1,4.018984E-1,-1.7783687E-1,-3.2187644E-2,-8.3512306E-2,3.1695854E-2,-8.760179E-3,-5.004093E-1,-3.9979885E-3,2.6009351E-2,-1.5566878E-2,8.086711E-3,-2.7832717E-2,-6.1573116E-3,5.5174874E-3,5.0641656E-2,3.5685652E-3,-1.7003143E-2,1.5007137E-2,-8.52063E-3,-2.7279368E-2,-1.4885202E-2],"categories":[],"categories_nodes":[],"categories_segments":[],"categories_sizes":[],"default_left":[0,0,0,0,0,0,0,0,0,0,0,0,0,0,0,0,0,0,0,0,0,0,0,0,0,0,0,0,0,0,0,0,0,0,0,0,0,0,0,0,0],"id":17,"left_children":[1,3,5,7,9,11,13,15,17,19,-1,21,23,-1,25,-1,-1,27,29,31,33,35,-1,37,-1,-1,39,-1,-1,-1,-1,-1,-1,-1,-1,-1,-1,-1,-1,-1,-1],"loss_changes":[1.6141626E1,9.329435E0,3.7162542E0,1.9388628E0,5.881261E0,3.1298084E0,1.4590302E0,1.0807962E0,3.7809916E0,5.457086E0,0E0,1.4478178E0,3.6726668E0,0E0,6.417675E-1,0E0,0E0,2.1262503E0,8.183464E-1,1.8989029E0,3.3508484E0,7.022128E-1,0E0,2.259595E0,0E0,0E0,3.525858E-1,0E0,0E0,0E0,0E0,0E0,0E0,0E0,0E0,0E0,0E0,0E0,0E0,0E0,0E0],"parents":[2147483647,0,0,1,1,2,2,3,3,4,4,5,5,6,6,7,7,8,8,9,9,11,11,12,12,14,14,17,17,18,18,19,19,20,20,21,21,23,23,26,26],"right_children":[2,4,6,8,10,12,14,16,18,20,-1,22,24,-1,26,-1,-1,28,30,32,34,36,-1,38,-1,-1,40,-1,-1,-1,-1,-1,-1,-1,-1,-1,-1,-1,-1,-1,-1],"split_conditions":[-2.20768E-2,1.2466248E0,5.54607E-1,8.458638E-1,2.2132664E0,1.18384E-1,5.934992E-1,8.603375E-1,1.8827614E0,1.3200148E0,4.4890996E-2,6.437E-2,2.025308E0,3.964694E-3,9.92522E-1,5.5222817E-2,2.2885486E-2,9.2576045E-1,2.1112137E0,6.97446E-1,2.2E0,1.0436484E0,-3.2187644E-2,9.934834E-1,3.1695854E-2,-8.760179E-3,1.5E0,-3.9979885E-3,2.6009351E-2,-1.5566878E-2,8.086711E-3,-2.7832717E-2,-6.1573116E-3,5.5174874E-3,5.0641656E-2,3.5685652E-3,-1.7003143E-2,1.5007137E-2,-8.52063E-3,-2.7279368E-2,-1.4885202E-2],"split_indices":[8,5,8,0,1,8,1,5,1,0,0,8,1,0,5,0,0,0,1,0,7,4,0,1,0,0,7,0,0,0,0,0,0,0,0,0,0,0,0,0,0],"split_type":[0,0,0,0,0,0,0,0,0,0,0,0,0,0,0,0,0,0,0,0,0,0,0,0,0,0,0,0,0,0,0,0,0,0,0,0,0,0,0,0,0],"sum_hessian":[3.6235892E2,1.9345955E2,1.6889935E2,8.623625E1,1.07223305E2,1.0014606E2,6.8753296E1,1.42616E1,7.197465E1,1.01631645E2,5.591659E0,2.7908373E1,7.2237686E1,5.1265173E0,6.362678E1,5.3314505E0,8.930149E0,5.85909E1,1.338375E1,8.319155E1,1.8440092E1,1.5769105E1,1.2139269E1,6.524068E1,6.9970064E0,8.389732E0,5.523705E1,6.3627706E0,5.2228127E1,8.070991E0,5.3127594E0,1.0968057E1,7.2223495E1,1.3282213E1,5.1578784E0,6.4384866E0,9.330619E0,1.1595219E1,5.3645462E1,4.3786564E1,1.1450486E1],"tree_param":{"num_deleted":"0","num_feature":"10","num_nodes":"41","size_leaf_vector":"1"}},{"base_weights":[-3.8850214E-3,-1.5639168E-1,1.9721124E-1,5.4430366E-2,-2.8112558E-1,2.0562265E-2,4.0308547E-1,4.93584E-3,3.410264E-2,-3.3594918E-1,4.206711E-2,3.8209796E-1,-4.587822E-2,2.0370722E-2,4.564245E-1,-3.104922E-1,7.416976E-2,-2.4073167E-1,-5.484269E-1,2.057054E-1,-1.4635007E-2,3.734235E-2,5.0942E-3,2.1828867E-1,-1.4736165E-1,-1.1304659E-2,1.3222498E-2,4.007987E-2,3.65621E-1,-3.900388E-3,-3.0849308E-2,8.033714E-3,-1.981338E-2,1.2094245E-2,-1.43019995E-2,-1.5085587E-2,-3.4346692E-2,-6.813172E-3,2.6186734E-2,2.617665E-2,2.433716E-3,-1.8735378E-3,-2.1407342E-2,1.1829354E-2,3.140278E-2],"categories":[],"categories_nodes":[],"categories_segments":[],"categories_sizes":[],"default_left":[0,0,0,0,0,0,0,0,0,0,0,0,0,0,0,0,0,0,0,0,0,0,0,0,0,0,0,0,0,0,0,0,0,0,0,0,0,0,0,0,0,0,0,0,0],"id":18,"left_children":[1,3,5,7,9,11,13,15,-1,17,19,21,23,25,27,29,31,33,35,37,-1,-1,-1,39,41,-1,-1,-1,43,-1,-1,-1,-1,-1,-1,-1,-1,-1,-1,-1,-1,-1,-1,-1,-1],"loss_changes":[1.3750881E1,6.720356E0,7.0247498E0,2.9669237E0,2.8554602E0,2.542946E0,1.8126764E0,1.9805447E0,0E0,2.6440163E0,1.3829174E0,1.6030564E0,2.4370728E0,7.795237E-1,2.1607056E0,1.1151959E0,3.0877335E0,2.1800609E0,1.21698E0,1.8990364E0,0E0,0E0,0E0,1.2844152E0,2.0021138E0,0E0,0E0,0E0,2.0125942E0,0E0,0E0,0E0,0E0,0E0,0E0,0E0,0E0,0E0,0E0,0E0,0E0,0E0,0E0,0E0,0E0],"parents":[2147483647,0,0,1,1,2,2,3,3,4,4,5,5,6,6,7,7,9,9,10,10,11,11,12,12,13,13,14,14,15,15,16,16,17,17,18,18,19,19,23,23,24,24,28,28],"right_children":[2,4,6,8,10,12,14,16,-1,18,20,22,24,26,28,30,32,34,36,38,-1,-1,-1,40,42,-1,-1,-1,44,-1,-1,-1,-1,-1,-1,-1,-1,-1,-1,-1,-1,-1,-1,-1,-1],"split_conditions":[1E-1,1.3348814E0,1.6007804E0,1.7042058E0,1.6666666E0,8.068046E-1,3.3333334E-1,8.649206E-1,3.410264E-2,1.984891E0,2.4E0,4E-1,3.3333334E-1,1.25E0,4.6666667E-1,7.930054E-1,2.0299115E0,7.539246E-1,-1.25E0,1.8961844E0,-1.4635007E-2,3.734235E-2,5.0942E-3,1.0126057E0,1.5941029E0,-1.1304659E-2,1.3222498E-2,4.007987E-2,2.2472942E0,-3.900388E-3,-3.0849308E-2,8.033714E-3,-1.981338E-2,1.2094245E-2,-1.43019995E-2,-1.5085587E-2,-3.4346692E-2,-6.813172E-3,2.6186734E-2,2.617665E-2,2.433716E-3,-1.8735378E-3,-2.1407342E-2,1.1829354E-2,3.140278E-2],"split_indices":[9,4,0,0,3,4,9,4,0,4,6,7,9,6,9,4,1,0,9,4,0,0,0,0,1,0,0,0,0,0,0,0,0,0,0,0,0,0,0,0,0,0,0,0,0],"split_type":[0,0,0,0,0,0,0,0,0,0,0,0,0,0,0,0,0,0,0,0,0,0,0,0,0,0,0,0,0,0,0,0,0,0,0,0,0,0,0,0,0,0,0,0,0],"sum_hessian":[4.4636557E2,2.5397742E2,1.9238817E2,9.46188E1,1.5935861E2,1.0413539E2,8.825278E1,8.8636734E1,5.98206E0,1.3621313E2,2.3145483E1,1.5428777E1,8.870662E1,1.0964306E1,7.728847E1,1.5326211E1,7.3310524E1,9.553435E1,4.067878E1,1.5805224E1,7.340258E0,5.9797626E0,9.449014E0,2.4300394E1,6.440623E1,5.4921684E0,5.4721375E0,1.4466999E1,6.2821472E1,9.428751E0,5.8974605E0,6.2480076E1,1.0830446E1,7.826727E0,8.770763E1,1.5768854E1,2.4909927E1,7.891371E0,7.9138536E0,7.9345226E0,1.6365871E1,4.7104416E1,1.7301807E1,4.3389313E1,1.9432158E1],"tree_param":{"num_deleted":"0","num_feature":"10","num_nodes":"45","size_leaf_vector":"1"}},{"base_weights":[1.2368081E-2,-2.7394533E-1,5.251655E-2,-3.7241745E-1,3.30708E-3,1.2639637E-1,-1.6640455E-1,-3.0587722E-2,-2.0218478E-1,-2.2002582E-2,2.0496845E-1,-3.5789537E-1,-8.278467E-2,-3.6882064E-1,1.2151365E-2,2.9858906E-2,-8.679598E-2,3.5487336E-1,1.1259345E-1,-2.6685133E-4,-2.6761089E-2,1.8076836E-1,-2.1410732E-1,-4.6054884E-3,-2.5285205E-2,-1.3132842E-2,6.7937225E-3,4.4140596E-2,1.2978842E-2,8.385101E-3,-2.3516512E-2,-4.250401E-3,1.7499154E-2,-2.9293045E-2,-4.9804375E-3],"categories":[],"categories_nodes":[],"categories_segments":[],"categories_sizes":[],"default_left":[0,0,0,0,0,0,0,0,0,0,0,0,0,0,0,0,0,0,0,0,0,0,0,0,0,0,0,0,0,0,0,0,0,0,0],"id":19,"left_children":[1,3,5,7,-1,9,11,-1,13,15,17,19,21,23,-1,-1,25,27,29,-1,-1,31,33,-1,-1,-1,-1,-1,-1,-1,-1,-1,-1,-1,-1],"loss_changes":[3.934698E0,1.4346101E0,4.872234E0,1.212677E0,0E0,2.6260064E0,1.1891282E0,0E0,1.6224124E0,3.2105172E0,1.996932E0,1.4246562E0,1.9173415E0,5.3790045E-1,0E0,0E0,2.8609276E0,2.5690556E0,3.0495834E0,0E0,0E0,8.659742E-1,1.5031776E0,0E0,0E0,0E0,0E0,0E0,0E0,0E0,0E0,0E0,0E0,0E0,0E0],"parents":[2147483647,0,0,1,1,2,2,3,3,5,5,6,6,8,8,9,9,10,10,11,11,12,12,13,13,16,16,17,17,18,18,21,21,22,22],"right_children":[2,4,6,8,-1,10,12,-1,14,16,18,20,22,24,-1,-1,26,28,30,-1,-1,32,34,-1,-1,-1,-1,-1,-1,-1,-1,-1,-1,-1,-1],"split_conditions":[8.729872E-1,1.6748523E0,1.6734922E0,1.427769E0,3.30708E-3,1.0153992E0,1.1171888E0,-3.0587722E-2,1.7042058E0,7.788636E-1,-3E-1,8.73961E-1,1.392977E0,1.1525874E0,1.2151365E-2,2.9858906E-2,1.4138626E0,1.0805148E0,2E0,-2.6685133E-4,-2.6761089E-2,4.6666667E-1,1.2E0,-4.6054884E-3,-2.5285205E-2,-1.3132842E-2,6.7937225E-3,4.4140596E-2,1.2978842E-2,8.385101E-3,-2.3516512E-2,-4.250401E-3,1.7499154E-2,-2.9293045E-2,-4.9804375E-3],"split_indices":[5,1,0,4,0,0,4,0,0,4,9,4,4,0,0,0,4,0,6,0,0,9,6,0,0,0,0,0,0,0,0,0,0,0,0],"split_type":[0,0,0,0,0,0,0,0,0,0,0,0,0,0,0,0,0,0,0,0,0,0,0,0,0,0,0,0,0,0,0,0,0,0,0],"sum_hessian":[3.4004358E2,4.1102604E1,2.9894098E2,3.1799885E1,9.302718E0,2.238279E2,7.511309E1,1.2139225E1,1.966066E1,7.773323E1,1.4609467E2,2.1833656E1,5.3279434E1,1.4430963E1,5.2296968E0,6.5853596E0,7.114787E1,5.4618626E1,9.1476036E1,7.6513753E0,1.4182281E1,1.7593767E1,3.5685665E1,5.3297486E0,9.101214E0,3.9651943E1,3.1495926E1,7.0879364E0,4.753069E1,8.422579E1,7.2502475E0,7.0376873E0,1.055608E1,7.4335833E0,2.8252083E1],"tree_param":{"num_deleted":"0","num_feature":"10","num_nodes":"35","size_leaf_vector":"1"}},{"base_weights":[-3.5443034E-3,1.6778897E-1,-2.1947089E-1,8.290474E-2,5.337323E-1,-1.0944307E-1,-3.6494574E-1,3.933738E-2,5.542574E-1,-7.495116E-3,6.917441E-1,1.5423833E-1,-2.0584232E-1,3.9488203E-3,-4.0038687E-1,-6.462422E-2,2.1278529E-1,1.1511326E-3,4.2533148E-2,5.5468936E-2,4.173708E-1,3.305474E-2,-8.223967E-2,-2.9132614E-1,2.0261616E-1,-3.1076605E-2,-3.209479E-1,9.571789E-3,-1.0468497E-2,1.7305259E-2,-8.589997E-3,3.4476466E-2,4.1889306E-3,9.566343E-3,-1.663971E-2,-1.1236129E-2,-3.0589981E-2,-8.996722E-3,2.8661633E-2,-2.3327924E-2,-6.472355E-3],"categories":[],"categories_nodes":[],"categories_segments":[],"categories_sizes":[],"default_left":[0,0,0,0,0,0,0,0,0,0,0,0,0,0,0,0,0,0,0,0,0,0,0,0,0,0,0,0,0,0,0,0,0,0,0,0,0,0,0,0,0],"id":20,"left_children":[1,3,5,7,9,11,13,15,17,-1,19,21,23,-1,25,27,29,-1,-1,-1,31,-1,33,35,37,-1,39,-1,-1,-1,-1,-1,-1,-1,-1,-1,-1,-1,-1,-1,-1],"loss_changes":[1.3981816E1,6.5018764E0,2.6363115E0,3.5153146E0,4.370042E0,2.4878705E0,1.1576948E0,2.87625E0,2.263143E0,0E0,3.233387E0,3.2234914E0,2.5446165E0,0E0,9.67823E-1,3.7472458E0,3.1217039E0,0E0,0E0,0E0,1.8553019E0,0E0,1.3603786E0,1.1277595E0,1.9334674E0,0E0,1.360425E0,0E0,0E0,0E0,0E0,0E0,0E0,0E0,0E0,0E0,0E0,0E0,0E0,0E0,0E0],"parents":[2147483647,0,0,1,1,2,2,3,3,4,4,5,5,6,6,7,7,8,8,10,10,11,11,12,12,14,14,15,15,16,16,20,20,22,22,23,23,24,24,26,26],"right_children":[2,4,6,8,10,12,14,16,18,-1,20,22,24,-1,26,28,30,-1,-1,-1,32,-1,34,36,38,-1,40,-1,-1,-1,-1,-1,-1,-1,-1,-1,-1,-1,-1,-1,-1],"split_conditions":[-1.0768E-3,2.25E0,5.54607E-1,2.1112137E0,1.0036215E0,1.1524992E0,6.484398E-1,1.157827E0,7.941946E-1,-7.495116E-3,1.3805878E0,1.3467424E0,1.9461706E0,3.9488203E-3,9.69438E-1,1.2536482E0,1.5E0,1.1511326E-3,4.2533148E-2,5.5468936E-2,9.7831076E-1,3.305474E-2,2E0,1.9313895E0,1.3348988E0,-3.1076605E-2,2E0,9.571789E-3,-1.0468497E-2,1.7305259E-2,-8.589997E-3,3.4476466E-2,4.1889306E-3,9.566343E-3,-1.663971E-2,-1.1236129E-2,-3.0589981E-2,-8.996722E-3,2.8661633E-2,-2.3327924E-2,-6.472355E-3],"split_indices":[8,7,8,1,1,1,1,0,0,0,1,0,1,0,1,5,2,0,0,0,5,0,3,5,0,0,3,0,0,0,0,0,0,0,0,0,0,0,0,0,0],"split_type":[0,0,0,0,0,0,0,0,0,0,0,0,0,0,0,0,0,0,0,0,0,0,0,0,0,0,0,0,0,0,0,0,0,0,0,0,0,0,0,0,0],"sum_hessian":[3.7593845E2,2.0973834E2,1.662001E2,1.712433E2,3.8495052E1,9.56266E1,7.0573494E1,1.577462E2,1.3497102E1,7.2367473E0,3.1258303E1,2.5440117E1,7.0186485E1,5.126949E0,6.544655E1,9.9021736E1,5.872446E1,5.219712E0,8.27739E0,1.1186921E1,2.0071383E1,7.522066E0,1.791805E1,5.8276844E1,1.1909642E1,1.5492877E1,4.995367E1,3.564391E1,6.3377827E1,4.3681824E1,1.5042633E1,1.0465889E1,9.605494E0,8.678676E0,9.239376E0,4.9657764E1,8.6190815E0,6.113639E0,5.796003E0,2.756095E1,2.239272E1],"tree_param":{"num_deleted":"0","num_feature":"10","num_nodes":"41","size_leaf_vector":"1"}},{"base_weights":[1.5347041E-2,-9.145806E-2,3.9285275E-1,-2.8039044E-1,2.5119785E-2,-5.294958E-3,4.3449947E-1,-3.8161626E-1,4.6593543E-2,-2.5042508E-2,2.3735963E-1,8.0808153E-4,4.6358043E-1,9.855158E-3,-4.158179E-1,2.6458287E-1,-2.0962691E-2,1.7814113E-1,-7.399221E-2,5.5681044E-1,2.7963627E-2,3.9713938E-2,3.9930496E-1,-1.7289596E-2,-2.8162083E-2,2.5030268E-2,-4.7439593E-3,-7.2026597E-3,2.7399555E-2,-1.0258566E-2,7.043499E-4,3.8322877E-2,1.821074E-2,2.5280653E-2,-9.341556E-3,3.6787752E-2,1.6929116E-2],"categories":[],"categories_nodes":[],"categories_segments":[],"categories_sizes":[],"default_left":[0,0,0,0,0,0,0,0,0,0,0,0,0,0,0,0,0,0,0,0,0,0,0,0,0,0,0,0,0,0,0,0,0,0,0,0,0],"id":21,"left_children":[1,3,5,7,9,-1,11,13,15,17,19,-1,21,-1,23,25,-1,27,29,31,33,-1,35,-1,-1,-1,-1,-1,-1,-1,-1,-1,-1,-1,-1,-1,-1],"loss_changes":[1.8120562E1,7.725356E0,2.104536E0,4.4464693E0,2.3229134E0,0E0,1.1076374E0,2.1063948E0,3.4133923E0,1.772888E0,2.773718E0,0E0,1.5037899E0,0E0,8.05521E-1,1.979076E0,0E0,4.2071276E0,1.6584496E0,3.8535547E-1,2.7866974E0,0E0,1.2573652E0,0E0,0E0,0E0,0E0,0E0,0E0,0E0,0E0,0E0,0E0,0E0,0E0,0E0,0E0],"parents":[2147483647,0,0,1,1,2,2,3,3,4,4,6,6,7,7,8,8,9,9,10,10,12,12,14,14,15,15,17,17,18,18,19,19,20,20,22,22],"right_children":[2,4,6,8,10,-1,12,14,16,18,20,-1,22,-1,24,26,-1,28,30,32,34,-1,36,-1,-1,-1,-1,-1,-1,-1,-1,-1,-1,-1,-1,-1,-1],"split_conditions":[5.319554E-1,-5E-1,1E0,-1.14124E-1,1.571858E0,-5.294958E-3,5.934992E-1,9.778586E-1,1.5168366E0,1E0,1.3333334E0,8.0808153E-4,1E-1,9.855158E-3,1.2379133E0,1.6959645E0,-2.0962691E-2,1.1843122E0,-2.441396E-1,1.25E0,-2.109568E-1,3.9713938E-2,8.432636E-1,-1.7289596E-2,-2.8162083E-2,2.5030268E-2,-4.7439593E-3,-7.2026597E-3,2.7399555E-2,-1.0258566E-2,7.043499E-4,3.8322877E-2,1.821074E-2,2.5280653E-2,-9.341556E-3,3.6787752E-2,1.6929116E-2],"split_indices":[8,9,3,8,0,0,1,1,0,3,6,0,9,0,0,1,0,4,8,2,8,0,1,0,0,0,0,0,0,0,0,0,0,0,0,0,0],"split_type":[0,0,0,0,0,0,0,0,0,0,0,0,0,0,0,0,0,0,0,0,0,0,0,0,0,0,0,0,0,0,0,0,0,0,0,0,0],"sum_hessian":[4.4753275E2,3.4942892E2,9.8103806E1,1.3280034E2,2.166286E2,7.441636E0,9.066217E1,1.0127967E2,3.152066E1,1.7593004E2,4.0698563E1,5.9939013E0,8.466827E1,5.385731E0,9.589394E1,2.1767012E1,9.753649E0,3.3643036E1,1.42287E2,1.5457599E1,2.5240963E1,1.1930133E1,7.273813E1,6.728112E1,2.8612823E1,1.2902554E1,8.864457E0,1.830616E1,1.5336878E1,5.662469E1,8.566231E1,5.974512E0,9.483087E0,7.4097066E0,1.7831257E1,9.421138E0,6.3316994E1],"tree_param":{"num_deleted":"0","num_feature":"10","num_nodes":"37","size_leaf_vector":"1"}},{"base_weights":[4.112402E-3,1.325123E-1,-5.67335E-2,1.816694E-1,-1.9595565E-2,-7.711263E-2,2.0321555E-2,2.9970556E-1,-2.2680866E-2,-2.2451093E-2,-2.1384491E-1,1.8240172E-1,5.8617093E-2,-3.2244712E-1,1.9522412E-1,-9.6708134E-2,2.737602E-1,-4.0161327E-2,-4.9214417E-1,1.3099909E-2,-1.7129807E-2,-7.537879E-3,-2.8331606E-2,-5.1709805E-3,3.5995413E-2,-7.2964267E-3,1.3399911E-2,-3.645567E-3,2.8829236E-2,-2.3248512E-2,3.7264165E-3,-2.7807413E-2,-1.1524408E-2],"categories":[],"categories_nodes":[],"categories_segments":[],"categories_sizes":[],"default_left":[0,0,0,0,0,0,0,0,0,0,0,0,0,0,0,0,0,0,0,0,0,0,0,0,0,0,0,0,0,0,0,0,0],"id":22,"left_children":[1,3,5,7,-1,9,-1,11,13,15,17,19,-1,21,23,25,27,29,31,-1,-1,-1,-1,-1,-1,-1,-1,-1,-1,-1,-1,-1,-1],"loss_changes":[2.6464014E0,2.8785374E0,2.2010856E0,2.4248996E0,0E0,1.6471409E0,0E0,6.29808E0,2.5212517E0,3.5242066E0,3.025736E0,2.4826071E0,0E0,5.945288E-1,3.586855E0,2.3347445E0,3.415575E0,1.9778526E0,2.758007E-1,0E0,0E0,0E0,0E0,0E0,0E0,0E0,0E0,0E0,0E0,0E0,0E0,0E0,0E0],"parents":[2147483647,0,0,1,1,2,2,3,3,5,5,7,7,8,8,9,9,10,10,11,11,13,13,14,14,15,15,16,16,17,17,18,18],"right_children":[2,4,6,8,-1,10,-1,12,14,16,18,20,-1,22,24,26,28,30,32,-1,-1,-1,-1,-1,-1,-1,-1,-1,-1,-1,-1,-1,-1],"split_conditions":[-5E-1,3E0,2.1528049E0,-2.295722E-1,-1.9595565E-2,5.049192E-1,2.0321555E-2,-2.932648E-1,1.1351852E0,2.752364E-1,1.25E0,2.1528049E0,5.8617093E-2,-1.0768E-3,1.716925E0,2E0,1E0,6E-1,2.424408E0,1.3099909E-2,-1.7129807E-2,-7.537879E-3,-2.8331606E-2,-5.1709805E-3,3.5995413E-2,-7.2964267E-3,1.3399911E-2,-3.645567E-3,2.8829236E-2,-2.3248512E-2,3.7264165E-3,-2.7807413E-2,-1.1524408E-2],"split_indices":[9,7,1,8,0,8,0,8,0,8,7,1,0,8,1,7,6,6,0,0,0,0,0,0,0,0,0,0,0,0,0,0,0],"split_type":[0,0,0,0,0,0,0,0,0,0,0,0,0,0,0,0,0,0,0,0,0,0,0,0,0,0,0,0,0,0,0,0,0],"sum_hessian":[3.3677243E2,1.0789966E2,2.2887279E2,9.924999E1,8.649662E0,2.2002524E2,8.8475485E0,6.2615562E1,3.6634434E1,1.5801836E2,6.200689E1,5.6261635E1,6.353927E0,1.52187E1,2.1415731E1,1.2688351E2,3.1134838E1,3.8884068E1,2.312282E1,4.9289642E1,6.9719925E0,9.885484E0,5.333217E0,1.4159315E1,7.2564163E0,1.1232423E2,1.4559288E1,1.48704605E1,1.6264378E1,7.6169252E0,3.1267145E1,1.767405E1,5.4487696E0],"tree_param":{"num_deleted":"0","num_feature":"10","num_nodes":"33","size_leaf_vector":"1"}},{"base_weights":[1.7653707E-2,1.868652E-1,-1.9481255E-1,2.6071155E-1,-1.9255486E-1,-7.4899234E-2,-3.716233E-1,1.15565825E-2,3.5684115E-1,1.334463E-2,-3.5954812E-1,-4.5728797E-1,4.6933394E-2,-3.070209E-2,-3.0474794E-1,-2.2113344E-2,1.1931148E-1,7.009812E-1,2.4588577E-1,-5.12558E-1,9.721104E-3,-1.907341E-1,-3.19955E-2,2.853725E-1,-1.7710453E-1,-2.7479816E-2,-4.0069425E-1,1.3309643E-3,2.1639891E-2,1.674035E-2,4.4099763E-2,2.5896912E-2,8.157882E-3,-6.154182E-3,-3.2381907E-2,-2.0997712E-2,3.5501998E-3,2.8387863E-2,-3.809968E-4,-1.7627263E-2,1.2159784E-2,-1.797278E-2,1.8523447E-2,-2.4122866E-2,-5.1658982E-3],"categories":[],"categories_nodes":[],"categories_segments":[],"categories_sizes":[],"default_left":[0,0,0,0,0,0,0,0,0,0,0,0,0,0,0,0,0,0,0,0,0,0,0,0,0,0,0,0,0,0,0,0,0,0,0,0,0,0,0,0,0,0,0,0,0],"id":23,"left_children":[1,3,5,7,9,11,13,15,17,-1,19,21,23,-1,25,-1,27,29,31,33,-1,35,-1,37,39,41,43,-1,-1,-1,-1,-1,-1,-1,-1,-1,-1,-1,-1,-1,-1,-1,-1,-1,-1],"loss_changes":[1.3560304E1,5.9316187E0,3.518375E0,4.2145376E0,2.7639656E0,4.7229605E0,9.045887E-1,2.501321E0,4.679514E0,0E0,2.297555E0,1.0694704E0,4.18736E0,0E0,1.4459119E0,0E0,1.1871378E0,1.7222824E0,2.1127043E0,1.0036917E0,0E0,7.123542E-1,0E0,3.1398306E0,3.0752854E0,2.1349995E0,9.3763065E-1,0E0,0E0,0E0,0E0,0E0,0E0,0E0,0E0,0E0,0E0,0E0,0E0,0E0,0E0,0E0,0E0,0E0,0E0],"parents":[2147483647,0,0,1,1,2,2,3,3,4,4,5,5,6,6,7,7,8,8,10,10,11,11,12,12,14,14,16,16,17,17,18,18,19,19,21,21,23,23,24,24,25,25,26,26],"right_children":[2,4,6,8,10,12,14,16,18,-1,20,22,24,-1,26,-1,28,30,32,34,-1,36,-1,38,40,42,44,-1,-1,-1,-1,-1,-1,-1,-1,-1,-1,-1,-1,-1,-1,-1,-1,-1,-1],"split_conditions":[-1.0768E-3,1.7131138E0,5.54607E-1,1.2320856E0,-5E-1,1.12892E-1,1E-1,1E0,9.312368E-1,1.334463E-2,1.6748523E0,1.3336244E0,1E-1,-3.070209E-2,1.7628796E0,-2.2113344E-2,1.4038802E0,1.4803994E0,1.4358974E0,1.28136E0,9.721104E-3,3.3333334E-1,-3.19955E-2,1.1843122E0,1.7131138E0,8.466874E-1,1.4848858E0,1.3309643E-3,2.1639891E-2,1.674035E-2,4.4099763E-2,2.5896912E-2,8.157882E-3,-6.154182E-3,-3.2381907E-2,-2.0997712E-2,3.5501998E-3,2.8387863E-2,-3.809968E-4,-1.7627263E-2,1.2159784E-2,-1.797278E-2,1.8523447E-2,-2.4122866E-2,-5.1658982E-3],"split_indices":[8,5,8,1,9,8,9,3,5,0,1,1,9,0,0,0,5,1,1,4,0,9,0,4,5,4,1,0,0,0,0,0,0,0,0,0,0,0,0,0,0,0,0,0,0],"split_type":[0,0,0,0,0,0,0,0,0,0,0,0,0,0,0,0,0,0,0,0,0,0,0,0,0,0,0,0,0,0,0,0,0,0,0,0,0,0,0,0,0,0,0,0,0],"sum_hessian":[3.7516824E2,2.0890973E2,1.6625851E2,1.7513596E2,3.377377E1,9.991775E1,6.634076E1,4.907093E1,1.2606503E2,8.843762E0,2.4930008E1,2.347736E1,7.644039E1,1.2575085E1,5.376568E1,8.820001E0,4.025093E1,2.943903E1,9.6626E1,1.9593048E1,5.33696E0,1.0376422E1,1.3100938E1,3.6897427E1,3.954296E1,1.4152842E1,3.961284E1,3.1902775E1,8.348155E0,1.068133E1,1.87577E1,2.1304657E1,7.532134E1,5.5376434E0,1.4055405E1,5.209585E0,5.1668367E0,1.8311295E1,1.8586132E1,2.8011621E1,1.1531341E1,7.7687464E0,6.384095E0,3.0581993E1,9.030845E0],"tree_param":{"num_deleted":"0","num_feature":"10","num_nodes":"45","size_leaf_vector":"1"}},{"base_weights":[1.10312225E-2,-2.6578274E-1,1.3611294E-1,2.8853355E-2,-3.968423E-1,3.770689E-3,3.402619E-1,2.1097289E-1,-3.4178552E-1,8.942722E-3,-4.4228116E-1,-7.639062E-2,2.350611E-1,4.1202286E-1,6.6295136E-3,5.571455E-2,2.2733055E-2,-3.3183576E-4,-3.1705312E-2,-3.622404E-1,-3.6637764E-2,-3.1113515E-2,-4.8372823E-1,3.584216E-1,-1.1300986E-1,3.1611285E-1,6.859306E-1,2.627924E-2,-2.1469012E-1,1.7427485E-2,-1.4472425E-2,-2.0956066E-2,-5.0297338E-3,-1.1404569E-2,2.6159757E-3,-3.2731425E-2,-1.2382116E-2,1.0787914E-2,3.9693814E-2,-2.7205972E-2,1.8341176E-2,3.7094515E-2,1.2732592E-2,4.0765245E-2,1.544748E-2,-2.61142E-2,1.11061195E-2],"categories":[],"categories_nodes":[],"categories_segments":[],"categories_sizes":[],"default_left":[0,0,0,0,0,0,0,0,0,0,0,0,0,0,0,0,0,0,0,0,0,0,0,0,0,0,0,0,0,0,0,0,0,0,0,0,0,0,0,0,0,0,0,0,0,0,0],"id":24,"left_children":[1,3,5,7,9,11,13,15,17,-1,19,21,23,25,27,29,-1,-1,-1,31,-1,33,35,37,39,41,43,-1,45,-1,-1,-1,-1,-1,-1,-1,-1,-1,-1,-1,-1,-1,-1,-1,-1,-1,-1],"loss_changes":[1.5361533E1,5.3439445E0,8.253206E0,3.0048397E0,2.58113E0,3.4733946E0,2.8739061E0,1.1002868E0,1.4356216E0,0E0,1.8023472E0,2.551457E0,2.1107116E0,2.3804398E0,2.6723845E0,2.0529091E0,0E0,0E0,0E0,1.0249624E0,0E0,2.087713E0,3.9677095E-1,2.0550423E0,2.966658E0,1.7758427E0,9.569464E-1,0E0,2.3104548E0,0E0,0E0,0E0,0E0,0E0,0E0,0E0,0E0,0E0,0E0,0E0,0E0,0E0,0E0,0E0,0E0,0E0,0E0],"parents":[2147483647,0,0,1,1,2,2,3,3,4,4,5,5,6,6,7,7,8,8,10,10,11,11,12,12,13,13,14,14,15,15,19,19,21,21,22,22,23,23,24,24,25,25,26,26,28,28],"right_children":[2,4,6,8,10,12,14,16,18,-1,20,22,24,26,28,30,-1,-1,-1,32,-1,34,36,38,40,42,44,-1,46,-1,-1,-1,-1,-1,-1,-1,-1,-1,-1,-1,-1,-1,-1,-1,-1,-1,-1],"split_conditions":[-5E-1,1.300215E0,1.5871404E0,1.8579654E0,7.483696E-1,1.7660604E0,2E0,1.4664774E0,1.083735E0,8.942722E-3,1.49411E0,1.6433206E0,1.5E0,2.2668E0,1.6200298E0,1.378059E0,2.2733055E-2,-3.3183576E-4,-3.1705312E-2,-6.5E-1,-3.6637764E-2,1.1378471E0,1E0,1.3200148E0,1.0891154E0,8.038296E-1,2.6235807E0,2.627924E-2,2.6E0,1.7427485E-2,-1.4472425E-2,-2.0956066E-2,-5.0297338E-3,-1.1404569E-2,2.6159757E-3,-3.2731425E-2,-1.2382116E-2,1.0787914E-2,3.9693814E-2,-2.7205972E-2,1.8341176E-2,3.7094515E-2,1.2732592E-2,4.0765245E-2,1.544748E-2,-2.61142E-2,1.11061195E-2],"split_indices":[9,4,0,1,0,5,7,1,0,0,5,5,3,0,4,5,0,0,0,9,0,5,7,0,4,1,0,0,3,0,0,0,0,0,0,0,0,0,0,0,0,0,0,0,0,0,0],"split_type":[0,0,0,0,0,0,0,0,0,0,0,0,0,0,0,0,0,0,0,0,0,0,0,0,0,0,0,0,0,0,0,0,0,0,0,0,0,0,0,0,0,0,0,0,0,0,0],"sum_hessian":[4.4161768E2,1.3709428E2,3.045234E2,4.244751E1,9.464677E1,1.8537202E2,1.1915139E2,2.875101E1,1.3696499E1,6.709045E0,8.793772E1,1.381584E2,4.7213623E1,9.786636E1,2.1285025E1,1.831244E1,1.0438571E1,6.8572702E0,6.839229E0,7.0702545E1,1.7235178E1,1.25306496E2,1.2851904E1,3.4837173E1,1.2376448E1,7.408075E1,2.3785616E1,5.9525566E0,1.5332468E1,9.9018955E0,8.410545E0,5.7582447E1,1.3120097E1,3.676762E1,8.853888E1,6.4267807E0,6.4251227E0,2.7366772E1,7.4704027E0,6.4486437E0,5.9278035E0,7.9481544E0,6.613259E1,1.6842724E1,6.9428916E0,8.882168E0,6.4503E0],"tree_param":{"num_deleted":"0","num_feature":"10","num_nodes":"47","size_leaf_vector":"1"}},{"base_weights":[-2.1114046E-2,4.461794E-2,-2.0090716E-1,2.669933E-1,1.968371E-4,-2.4350287E-2,-3.1111053E-1,3.872735E-1,-1.2466318E-2,-5.0196514E-2,1.8764062E-1,-2.0022029E-2,1.1104702E-1,-1.8433055E-1,-4.6656087E-1,6.586097E-2,5.243332E-1,-4.4079608E-1,-2.1359071E-2,9.012115E-2,3.872708E-1,-2.8014666E-1,3.988003E-1,-2.958032E-1,1.2834352E-2,-2.5829395E-2,-1.1350806E-2,-5.6677028E-3,1.2251603E-2,3.6124736E-2,4.0446813E-3,-2.8173327E-2,-1.2429217E-2,-3.5942947E-3,2.5354354E-2,2.4345135E-2,-5.885409E-4,3.5677345E-3,3.1735033E-2,5.54949E-3,-2.814942E-2,2.9316846E-2,6.9181467E-3,-2.7916512E-2,-1.0368603E-2],"categories":[],"categories_nodes":[],"categories_segments":[],"categories_sizes":[],"default_left":[0,0,0,0,0,0,0,0,0,0,0,0,0,0,0,0,0,0,0,0,0,0,0,0,0,0,0,0,0,0,0,0,0,0,0,0,0,0,0,0,0,0,0,0,0],"id":25,"left_children":[1,3,5,7,9,11,13,15,-1,17,19,-1,21,23,25,27,29,31,33,35,37,39,41,43,-1,-1,-1,-1,-1,-1,-1,-1,-1,-1,-1,-1,-1,-1,-1,-1,-1,-1,-1,-1,-1],"loss_changes":[4.1210613E0,2.524935E0,1.8084428E0,2.7395608E0,2.0313632E0,1.9262104E0,1.0448527E0,1.5033011E0,0E0,1.8996959E0,8.5215724E-1,0E0,3.2584827E0,1.710932E0,1.8378878E-1,3.9959967E-1,2.0794377E0,1.3348961E-1,4.2788606E0,1.2960129E0,1.0998974E0,1.4381809E0,7.2570324E-1,5.113225E-1,0E0,0E0,0E0,0E0,0E0,0E0,0E0,0E0,0E0,0E0,0E0,0E0,0E0,0E0,0E0,0E0,0E0,0E0,0E0,0E0,0E0],"parents":[2147483647,0,0,1,1,2,2,3,3,4,4,5,5,6,6,7,7,9,9,10,10,12,12,13,13,14,14,15,15,16,16,17,17,18,18,19,19,20,20,21,21,22,22,23,23],"right_children":[2,4,6,8,10,12,14,16,-1,18,20,-1,22,24,26,28,30,32,34,36,38,40,42,44,-1,-1,-1,-1,-1,-1,-1,-1,-1,-1,-1,-1,-1,-1,-1,-1,-1,-1,-1,-1,-1],"split_conditions":[1.6666666E0,6E-1,1.6666666E0,2.159354E0,1.817132E0,-4.5215E-1,1.2011642E0,5E-1,-1.2466318E-2,-1.25E0,9.14892E-2,-2.0022029E-2,1.200579E0,1.1012626E0,2E0,1.25E0,1.67468E0,1.450769E0,2.0151927E0,-9.532615E-1,9.811704E-1,9.104944E-1,1.5E0,6.437E-2,1.2834352E-2,-2.5829395E-2,-1.1350806E-2,-5.6677028E-3,1.2251603E-2,3.6124736E-2,4.0446813E-3,-2.8173327E-2,-1.2429217E-2,-3.5942947E-3,2.5354354E-2,2.4345135E-2,-5.885409E-4,3.5677345E-3,3.1735033E-2,5.54949E-3,-2.814942E-2,2.9316846E-2,6.9181467E-3,-2.7916512E-2,-1.0368603E-2],"split_indices":[3,3,2,1,1,8,1,2,0,9,8,0,4,1,7,7,4,1,4,8,4,1,6,8,0,0,0,0,0,0,0,0,0,0,0,0,0,0,0,0,0,0,0,0,0],"split_type":[0,0,0,0,0,0,0,0,0,0,0,0,0,0,0,0,0,0,0,0,0,0,0,0,0,0,0,0,0,0,0,0,0,0,0,0,0,0,0,0,0,0,0,0,0],"sum_hessian":[3.469474E2,2.5461317E2,9.2334206E1,4.155837E1,2.130548E2,3.5953712E1,5.6380497E1,3.3908978E1,7.6493917E0,1.6848944E2,4.456536E1,8.999227E0,2.6954487E1,3.225787E1,2.4122627E1,1.0579647E1,2.3329329E1,1.0601938E1,1.578875E2,3.0914871E1,1.3650492E1,1.1435133E1,1.5519353E1,2.601223E1,6.2456408E0,1.8998415E1,5.124212E0,5.4728236E0,5.106824E0,1.5689018E1,7.6403103E0,5.292654E0,5.3092847E0,1.4489726E2,1.2990232E1,5.544642E0,2.5370228E1,6.561373E0,7.089118E0,5.05385E0,6.381283E0,8.294947E0,7.2244062E0,5.215414E0,2.0796814E1],"tree_param":{"num_deleted":"0","num_feature":"10","num_nodes":"45","size_leaf_vector":"1"}},{"base_weights":[-7.198495E-3,1.891819E-1,-2.3023391E-1,5.557278E-1,9.789264E-2,-1.6600385E-1,-5.0720656E-1,8.6257416E-1,3.0301988E-1,-3.30547E-1,1.6363397E-1,-1.9717193E-1,1.797026E-1,-3.1110926E-2,-2.7263215E-1,4.9446292E-2,2.4028031E-2,6.568206E-1,-9.364433E-3,7.7610346E-3,-5.1924694E-1,-2.5115263E-1,2.285788E-1,-2.3616528E-2,-2.6834038E-1,-7.4346713E-3,2.4837688E-2,-2.7793614E-2,3.275434E-3,4.1830573E-2,2.0489119E-2,-1.2957579E-2,-3.1308744E-2,2.6557473E-3,-2.6476873E-2,9.692705E-3,4.2045176E-2,1.6829148E-2,-7.3982E-3,-1.5568092E-2,1.8068872E-2],"categories":[],"categories_nodes":[],"categories_segments":[],"categories_sizes":[],"default_left":[0,0,0,0,0,0,0,0,0,0,0,0,0,0,0,0,0,0,0,0,0,0,0,0,0,0,0,0,0,0,0,0,0,0,0,0,0,0,0,0,0],"id":26,"left_children":[1,3,5,7,9,11,13,15,17,19,21,23,25,-1,27,-1,-1,29,-1,-1,31,33,35,37,39,-1,-1,-1,-1,-1,-1,-1,-1,-1,-1,-1,-1,-1,-1,-1,-1],"loss_changes":[1.5939495E1,6.421866E0,2.9468584E0,2.7144947E0,4.4526734E0,1.5417044E0,6.825409E-1,3.3520794E-1,4.0411725E0,2.0152595E0,3.722612E0,1.5834332E0,1.3320591E0,0E0,1.2021658E0,0E0,0E0,2.4974203E-1,0E0,0E0,2.6688862E-1,1.6286713E0,2.3494763E0,1.775401E0,2.5827775E0,0E0,0E0,0E0,0E0,0E0,0E0,0E0,0E0,0E0,0E0,0E0,0E0,0E0,0E0,0E0,0E0],"parents":[2147483647,0,0,1,1,2,2,3,3,4,4,5,5,6,6,7,7,8,8,9,9,10,10,11,11,12,12,14,14,17,17,20,20,21,21,22,22,23,23,24,24],"right_children":[2,4,6,8,10,12,14,16,18,20,22,24,26,-1,28,-1,-1,30,-1,-1,32,34,36,38,40,-1,-1,-1,-1,-1,-1,-1,-1,-1,-1,-1,-1,-1,-1,-1,-1],"split_conditions":[-7.7936E-3,9.639944E-1,8.558578E-1,-8E-1,6.666667E-1,2.025308E0,1.6206088E0,1.8827614E0,2E0,8.19416E-1,7.64213E-1,1.1112738E0,1.3918226E0,-3.1110926E-2,6.666667E-1,4.9446292E-2,2.4028031E-2,8.570924E-1,-9.364433E-3,7.7610346E-3,4.6666667E-1,1.3558376E0,2.3728418E0,1.3467424E0,2.2E0,-7.4346713E-3,2.4837688E-2,-2.7793614E-2,3.275434E-3,4.1830573E-2,2.0489119E-2,-1.2957579E-2,-3.1308744E-2,2.6557473E-3,-2.6476873E-2,9.692705E-3,4.2045176E-2,1.6829148E-2,-7.3982E-3,-1.5568092E-2,1.8068872E-2],"split_indices":[8,5,8,9,7,1,5,1,7,0,0,1,0,0,7,0,0,5,0,0,9,5,1,0,7,0,0,0,0,0,0,0,0,0,0,0,0,0,0,0,0],"split_type":[0,0,0,0,0,0,0,0,0,0,0,0,0,0,0,0,0,0,0,0,0,0,0,0,0,0,0,0,0,0,0,0,0,0,0,0,0,0,0,0,0],"sum_hessian":[3.619228E2,1.9254271E2,1.693801E2,3.73773E1,1.551654E2,1.3879324E2,3.0586847E1,1.5790554E1,2.1586748E1,2.0105944E1,1.3505946E2,1.2770896E2,1.108428E1,1.9415083E1,1.1171763E1,1.0672039E1,5.118515E0,1.2341596E1,9.245152E0,5.6748E0,1.4431143E1,1.7895859E1,1.17163605E2,3.752652E1,9.018244E1,5.705566E0,5.378714E0,5.72901E0,5.442753E0,5.7617264E0,6.579869E0,5.2017727E0,9.22937E0,8.93707E0,8.958789E0,1.121218E2,5.0418E0,9.192283E0,2.833424E1,8.488853E1,5.293915E0],"tree_param":{"num_deleted":"0","num_feature":"10","num_nodes":"41","size_leaf_vector":"1"}},{"base_weights":[1.7226595E-2,-8.727406E-2,4.311916E-1,-2.7199502E-3,-2.9549778E-1,2.2141248E-2,4.9918655E-1,-3.0151707E-1,3.295893E-2,1.6402435E-2,-3.334054E-1,1.9697702E-2,-1.3336256E-2,3.367769E-1,6.175698E-1,-1.1042258E-1,-3.3149786E-2,-6.485548E-2,1.4187917E-1,-4.3239805E-1,-7.093577E-2,1.7889129E-2,5.246628E-1,3.7712395E-2,3.9816356E-1,-1.3406123E-2,1.0205942E-2,7.0149705E-5,-1.5455201E-2,-8.7762217E-4,1.690053E-2,-1.0157625E-2,-2.514608E-2,1.7022355E-2,-9.222123E-3,1.17615145E-2,-1.3400284E-2,3.287451E-2,1.182347E-2,3.0451957E-2,-3.1717386E-4],"categories":[],"categories_nodes":[],"categories_segments":[],"categories_sizes":[],"default_left":[0,0,0,0,0,0,0,0,0,0,0,0,0,0,0,0,0,0,0,0,0,0,0,0,0,0,0,0,0,0,0,0,0,0,0,0,0,0,0,0,0],"id":27,"left_children":[1,3,5,7,9,11,13,15,17,-1,19,-1,-1,21,23,25,-1,27,29,31,33,35,37,-1,39,-1,-1,-1,-1,-1,-1,-1,-1,-1,-1,-1,-1,-1,-1,-1,-1],"loss_changes":[1.935713E1,6.291847E0,2.4972343E0,2.7305655E0,2.5489883E0,1.5980482E0,1.2778912E0,1.8140335E0,2.4476771E0,0E0,2.510213E0,0E0,0E0,2.074553E0,1.004179E0,1.0007861E0,0E0,1.9630723E0,3.4019856E0,1.0426912E0,1.3692291E0,9.2864764E-1,6.8098736E-1,0E0,1.6088135E0,0E0,0E0,0E0,0E0,0E0,0E0,0E0,0E0,0E0,0E0,0E0,0E0,0E0,0E0,0E0,0E0],"parents":[2147483647,0,0,1,1,2,2,3,3,4,4,5,5,6,6,7,7,8,8,10,10,13,13,14,14,15,15,17,17,18,18,19,19,20,20,21,21,22,22,24,24],"right_children":[2,4,6,8,10,12,14,16,18,-1,20,-1,-1,22,24,26,-1,28,30,32,34,36,38,-1,40,-1,-1,-1,-1,-1,-1,-1,-1,-1,-1,-1,-1,-1,-1,-1,-1],"split_conditions":[5.319554E-1,2E0,1.2E0,9.603226E-1,1.2444004E0,6.666667E-1,1.2E0,8.955282E-1,-1.073972E-1,1.6402435E-2,1.6666666E0,1.9697702E-2,-1.3336256E-2,8.78712E-1,1.25E0,1.504318E0,-3.3149786E-2,1.2440684E0,1.103987E0,1.5E0,8.27134E-1,6.666667E-1,1.2618103E0,3.7712395E-2,2.25E0,-1.3406123E-2,1.0205942E-2,7.0149705E-5,-1.5455201E-2,-8.7762217E-4,1.690053E-2,-1.0157625E-2,-2.514608E-2,1.7022355E-2,-9.222123E-3,1.17615145E-2,-1.3400284E-2,3.287451E-2,1.182347E-2,3.0451957E-2,-3.1717386E-4],"split_indices":[8,7,3,5,4,7,7,5,8,0,3,0,0,4,6,0,0,0,4,6,5,6,4,0,3,0,0,0,0,0,0,0,0,0,0,0,0,0,0,0,0],"split_type":[0,0,0,0,0,0,0,0,0,0,0,0,0,0,0,0,0,0,0,0,0,0,0,0,0,0,0,0,0,0,0,0,0,0,0,0,0,0,0,0,0],"sum_hessian":[4.4559436E2,3.5641156E2,8.9182785E1,2.5420055E2,1.0221101E2,1.2900485E1,7.62823E1,2.632103E1,2.2787952E2,5.4190254E0,9.679199E1,5.481373E0,7.4191127E0,3.3781868E1,4.2500435E1,1.8072523E1,8.248506E0,1.2027378E2,1.07605736E2,6.9813736E1,2.6978256E1,1.2930648E1,2.0851221E1,2.4685217E1,1.7815216E1,1.2135694E1,5.9368296E0,9.539089E1,2.488289E1,5.985843E1,4.7747307E1,1.7337307E1,5.247643E1,5.4016542E0,2.1576603E1,7.4467444E0,5.4839034E0,1.3395746E1,7.455475E0,1.1378041E1,6.4371758E0],"tree_param":{"num_deleted":"0","num_feature":"10","num_nodes":"41","size_leaf_vector":"1"}},{"base_weights":[-1.1091743E-2,1.6097136E-2,-4.5701778E-1,2.8213814E-1,-1.9576527E-2,-1.446703E-2,-2.8917566E-2,7.640021E-2,5.7018566E-1,1.2809597E-1,-6.483419E-2,-1.7092876E-1,1.8092763E-2,1.2658934E-2,4.968033E-2,-1.4767018E-1,2.9914978E-1,-4.5258424E-1,-3.2295823E-2,1.1218736E-2,-2.3575766E-2,-2.3974562E-2,7.8761065E-4,1.9207356E-2,-1.1977756E-2,-1.064625E-2,-3.0087093E-2,-4.460035E-3,3.382222E-3],"categories":[],"categories_nodes":[],"categories_segments":[],"categories_sizes":[],"default_left":[0,0,0,0,0,0,0,0,0,0,0,0,0,0,0,0,0,0,0,0,0,0,0,0,0,0,0,0,0],"id":28,"left_children":[1,3,5,7,9,-1,-1,11,13,15,17,19,-1,-1,-1,21,23,25,27,-1,-1,-1,-1,-1,-1,-1,-1,-1,-1],"loss_changes":[4.083312E0,3.0219288E0,2.26408E-1,2.1872978E0,1.8875527E0,0E0,0E0,1.6937361E0,1.8329582E0,3.1714425E0,2.7091956E0,1.6580087E0,0E0,0E0,0E0,1.4201391E0,1.9806674E0,4.66599E-1,1.1448815E0,0E0,0E0,0E0,0E0,0E0,0E0,0E0,0E0,0E0,0E0],"parents":[2147483647,0,0,1,1,2,2,3,3,4,4,7,7,8,8,9,9,10,10,11,11,15,15,16,16,17,17,18,18],"right_children":[2,4,6,8,10,-1,-1,12,14,16,18,20,-1,-1,-1,22,24,26,28,-1,-1,-1,-1,-1,-1,-1,-1,-1,-1],"split_conditions":[2.2668E0,6E-1,1E0,-8E-1,-6.119882E-1,-1.446703E-2,-2.8917566E-2,1.0153992E0,1.6206088E0,1.0855908E0,-4.5215E-1,1.1064366E0,1.8092763E-2,1.2658934E-2,4.968033E-2,1.2E0,1.6666666E0,1E0,6E-1,1.1218736E-2,-2.3575766E-2,-2.3974562E-2,7.8761065E-4,1.9207356E-2,-1.1977756E-2,-1.064625E-2,-3.0087093E-2,-4.460035E-3,3.382222E-3],"split_indices":[0,3,9,9,8,0,0,0,5,5,8,5,0,0,0,3,3,2,9,0,0,0,0,0,0,0,0,0,0],"split_type":[0,0,0,0,0,0,0,0,0,0,0,0,0,0,0,0,0,0,0,0,0,0,0,0,0,0,0,0,0],"sum_hessian":[3.3518265E2,3.1682892E2,1.8353703E1,3.6643837E1,2.801851E2,9.126286E0,9.227418E0,2.2114086E1,1.4529752E1,6.529661E1,2.1488849E2,1.2063245E1,1.0050842E1,9.222775E0,5.306976E0,2.5049501E1,4.024711E1,1.563706E1,1.9925142E2,5.320181E0,6.743064E0,7.6277246E0,1.7421776E1,3.501009E1,5.237018E0,6.9299192E0,8.707141E0,1.27029625E2,7.2221794E1],"tree_param":{"num_deleted":"0","num_feature":"10","num_nodes":"29","size_leaf_vector":"1"}},{"base_weights":[-9.630161E-3,1.5778978E-1,-2.1916118E-1,5.177526E-1,7.391509E-2,-1.4133151E-1,-4.0605593E-1,6.477671E-1,-5.2487976E-3,3.6418978E-2,3.5331093E-2,-1.6770367E-1,1.5041365E-2,-4.035105E-3,-4.7795862E-1,2.6704476E-3,7.815618E-1,1.1494293E-1,-2.7280608E-1,-1.9566312E-1,1.4686479E-2,-5.5562E-1,-1.13720065E-2,1.6340084E-2,4.6452146E-2,1.3500066E-3,2.0280255E-2,2.7337062E-4,-2.2415424E-2,7.564924E-3,-1.1992953E-2,-3.076831E-2,-1.8434038E-2],"categories":[],"categories_nodes":[],"categories_segments":[],"categories_sizes":[],"default_left":[0,0,0,0,0,0,0,0,0,0,0,0,0,0,0,0,0,0,0,0,0,0,0,0,0,0,0,0,0,0,0,0,0],"id":29,"left_children":[1,3,5,7,9,11,13,15,-1,17,-1,19,-1,-1,21,-1,23,25,27,29,-1,31,-1,-1,-1,-1,-1,-1,-1,-1,-1,-1,-1],"loss_changes":[1.2861007E1,6.1155214E0,2.3108892E0,3.1730604E0,3.9236598E0,1.4086833E0,1.0687432E0,2.4923525E0,0E0,3.8730152E0,0E0,1.4839251E0,0E0,0E0,6.239023E-1,0E0,1.4360065E0,3.2322178E0,1.5816898E0,1.6440754E0,0E0,9.4171524E-2,0E0,0E0,0E0,0E0,0E0,0E0,0E0,0E0,0E0,0E0,0E0],"parents":[2147483647,0,0,1,1,2,2,3,3,4,4,5,5,6,6,7,7,9,9,11,11,14,14,16,16,17,17,18,18,19,19,21,21],"right_children":[2,4,6,8,10,12,14,16,-1,18,-1,20,-1,-1,22,-1,24,26,28,30,-1,32,-1,-1,-1,-1,-1,-1,-1,-1,-1,-1,-1],"split_conditions":[-7.7936E-3,9.312368E-1,7.2185665E-1,2E0,2.441159E0,6.567048E-1,1.046389E0,8E-1,-5.2487976E-3,1.7131138E0,3.5331093E-2,1.8751272E0,1.5041365E-2,-4.035105E-3,1.4848858E0,2.6704476E-3,6.6751176E-1,1.3200148E0,0E0,9.164016E-1,1.4686479E-2,1.67675E0,-1.13720065E-2,1.6340084E-2,4.6452146E-2,1.3500066E-3,2.0280255E-2,2.7337062E-4,-2.2415424E-2,7.564924E-3,-1.1992953E-2,-3.076831E-2,-1.8434038E-2],"split_indices":[8,5,8,3,1,8,5,2,0,5,0,4,0,0,1,0,5,0,9,1,0,5,0,0,0,0,0,0,0,0,0,0,0],"split_type":[0,0,0,0,0,0,0,0,0,0,0,0,0,0,0,0,0,0,0,0,0,0,0,0,0,0,0,0,0,0,0,0,0],"sum_hessian":[3.6463696E2,2.0282347E2,1.618135E2,3.735123E1,1.6547223E2,1.1547979E2,4.6333717E1,3.0866627E1,6.484604E0,1.5721289E2,8.25935E0,1.0956557E2,5.9142213E0,8.770463E0,3.7563255E1,5.9286914E0,2.4937935E1,1.2587639E2,3.1336496E1,1.0384905E2,5.7165194E0,2.7744503E1,9.818752E0,6.8945093E0,1.8043427E1,9.747671E1,2.839968E1,1.2494416E1,1.884208E1,1.1459839E1,9.238921E1,1.9288168E1,8.456334E0],"tree_param":{"num_deleted":"0","num_feature":"10","num_nodes":"33","size_leaf_vector":"1"}},{"base_weights":[8.071027E-3,-1.8248326E-1,1.8434289E-1,-3.2518512E-1,-3.4002963E-2,1.0089796E-1,5.595696E-1,1.7681649E-2,-3.6388865E-1,-2.6997972E-2,1.4111165E-2,1.6291349E-1,-1.9497581E-1,3.7904494E-2,4.239764E-1,-2.5515544E-1,-4.7232553E-1,1.2432238E-1,-1.926159E-1,-5.6826733E-3,2.902902E-1,-3.3561617E-1,1.4954942E-2,-3.3200445E-4,5.3213197E-1,1.8496234E-3,-1.6306352E-2,-2.7169025E-2,-1.1146191E-2,2.8264695E-3,3.5977893E-2,-2.6616344E-2,-1.7499727E-3,2.5189543E-2,-4.2695994E-3,3.0384017E-2,1.1205531E-2,-2.8380388E-2,-6.3932384E-3,9.954984E-3,3.2244377E-2],"categories":[],"categories_nodes":[],"categories_segments":[],"categories_sizes":[],"default_left":[0,0,0,0,0,0,0,0,0,0,0,0,0,0,0,0,0,0,0,0,0,0,0,0,0,0,0,0,0,0,0,0,0,0,0,0,0,0,0,0,0],"id":30,"left_children":[1,3,5,7,9,11,13,-1,15,-1,17,19,21,-1,23,25,27,29,31,33,35,37,-1,-1,39,-1,-1,-1,-1,-1,-1,-1,-1,-1,-1,-1,-1,-1,-1,-1,-1],"loss_changes":[1.4931991E1,4.51563E0,7.173323E0,2.9877481E0,2.5835881E0,3.5201638E0,8.034315E-1,0E0,1.0991812E0,0E0,2.2476864E0,3.3886676E0,2.4211597E0,0E0,1.2655854E0,1.1281288E0,7.7589035E-1,2.5528066E0,1.8196573E0,2.8392906E0,1.7513084E0,1.2031636E0,0E0,0E0,6.85359E-1,0E0,0E0,0E0,0E0,0E0,0E0,0E0,0E0,0E0,0E0,0E0,0E0,0E0,0E0,0E0,0E0],"parents":[2147483647,0,0,1,1,2,2,3,3,4,4,5,5,6,6,8,8,10,10,11,11,12,12,14,14,15,15,16,16,17,17,18,18,19,19,20,20,21,21,24,24],"right_children":[2,4,6,8,10,12,14,-1,16,-1,18,20,22,-1,24,26,28,30,32,34,36,38,-1,-1,40,-1,-1,-1,-1,-1,-1,-1,-1,-1,-1,-1,-1,-1,-1,-1,-1],"split_conditions":[-9.4287E-2,-5E-1,8.875148E-1,9.934834E-1,-1.0479022E0,1.5E0,6.666667E-1,1.7681649E-2,1.75E0,-2.6997972E-2,1.5941029E0,1.0498552E0,6.359674E-1,3.7904494E-2,1.1262962E0,-8.102004E-1,-5.345356E-1,2.15753E0,1.6959645E0,4E-1,7.5E-1,1.6E0,1.4954942E-2,-3.3200445E-4,1.3333334E0,1.8496234E-3,-1.6306352E-2,-2.7169025E-2,-1.1146191E-2,2.8264695E-3,3.5977893E-2,-2.6616344E-2,-1.7499727E-3,2.5189543E-2,-4.2695994E-3,3.0384017E-2,1.1205531E-2,-2.8380388E-2,-6.3932384E-3,9.954984E-3,3.2244377E-2],"split_indices":[8,9,8,1,8,6,9,0,6,0,1,4,8,0,5,8,8,5,1,7,6,3,0,0,9,0,0,0,0,0,0,0,0,0,0,0,0,0,0,0,0],"split_type":[0,0,0,0,0,0,0,0,0,0,0,0,0,0,0,0,0,0,0,0,0,0,0,0,0,0,0,0,0,0,0,0,0,0,0,0,0,0,0,0,0],"sum_hessian":[4.425438E2,2.1263972E2,2.2990408E2,1.0782289E2,1.0481683E2,1.8911629E2,4.0787796E1,5.377113E0,1.0244578E2,8.214341E0,9.660249E1,1.5671748E2,3.2398804E1,1.46897745E1,2.609802E1,5.2827225E1,4.961855E1,6.327022E1,3.333227E1,6.785706E1,8.886041E1,2.546952E1,6.9292855E0,5.4274583E0,2.0670563E1,1.0418639E1,4.240859E1,3.7699234E1,1.1919316E1,5.778401E1,5.4862084E0,9.810446E0,2.3521828E1,8.460462E0,5.9396603E1,1.3919878E1,7.494053E1,1.1214442E1,1.4255077E1,5.9278765E0,1.4742687E1],"tree_param":{"num_deleted":"0","num_feature":"10","num_nodes":"41","size_leaf_vector":"1"}},{"base_weights":[8.640215E-3,2.0439161E-1,-3.4125265E-2,1.3291167E-1,4.0362384E-2,-1.4764962E-1,5.27225E-2,-1.3308239E-1,2.1313319E-1,-3.650352E-2,-3.7444723E-1,-2.952986E-1,8.7720245E-2,9.190216E-3,-2.2902427E-2,5.877535E-2,3.5184268E-2,1.2354608E-1,-4.8767516E-1,-1.697968E-1,-4.8133227E-1,9.868793E-4,-2.4582786E-2,-2.468966E-2,2.8786236E-1,-1.5409489E-2,9.896114E-3,1.140733E-2,-1.07718585E-2,-3.0045126E-2,-1.3384679E-2,7.950328E-3,-1.9140547E-2,-2.8196806E-2,-1.45673035E-2,2.390936E-2,-5.3645927E-3,7.469774E-3,2.8460681E-2],"categories":[],"categories_nodes":[],"categories_segments":[],"categories_sizes":[],"default_left":[0,0,0,0,0,0,0,0,0,0,0,0,0,0,0,0,0,0,0,0,0,0,0,0,0,0,0,0,0,0,0,0,0,0,0,0,0,0,0],"id":31,"left_children":[1,3,5,7,-1,9,11,13,15,17,19,21,23,-1,-1,25,-1,27,29,31,33,-1,-1,35,37,-1,-1,-1,-1,-1,-1,-1,-1,-1,-1,-1,-1,-1,-1],"loss_changes":[2.902594E0,2.5713575E0,2.815064E0,1.239727E0,0E0,3.1039062E0,1.9997557E0,1.5021437E0,3.2903066E0,6.1336813E0,8.0564976E-1,9.398725E-1,3.3372693E0,0E0,0E0,1.8256738E0,0E0,2.2788117E0,3.9274597E-1,1.1439235E0,2.4536848E-1,0E0,0E0,4.026802E0,1.9919949E0,0E0,0E0,0E0,0E0,0E0,0E0,0E0,0E0,0E0,0E0,0E0,0E0,0E0,0E0],"parents":[2147483647,0,0,1,1,2,2,3,3,5,5,6,6,7,7,8,8,9,9,10,10,11,11,12,12,15,15,17,17,18,18,19,19,20,20,23,23,24,24],"right_children":[2,4,6,8,-1,10,12,14,16,18,20,22,24,-1,-1,26,-1,28,30,32,34,-1,-1,36,38,-1,-1,-1,-1,-1,-1,-1,-1,-1,-1,-1,-1,-1,-1],"split_conditions":[7.5E-1,1.9564674E0,1.289511E0,-8.102004E-1,4.0362384E-2,1.6976134E0,-1.2E0,1.2613752E0,1.464377E0,1.5E0,9.087067E-1,1E0,2E0,9.190216E-3,-2.2902427E-2,-3.320038E-1,3.5184268E-2,1.2E0,1.1470568E0,6.666667E-1,1.2E0,9.868793E-4,-2.4582786E-2,1.3466866E0,1.242662E0,-1.5409489E-2,9.896114E-3,1.140733E-2,-1.07718585E-2,-3.0045126E-2,-1.3384679E-2,7.950328E-3,-1.9140547E-2,-2.8196806E-2,-1.45673035E-2,2.390936E-2,-5.3645927E-3,7.469774E-3,2.8460681E-2],"split_indices":[3,5,4,8,0,5,9,5,4,7,4,3,7,0,0,8,0,9,4,9,7,0,0,4,5,0,0,0,0,0,0,0,0,0,0,0,0,0,0],"split_type":[0,0,0,0,0,0,0,0,0,0,0,0,0,0,0,0,0,0,0,0,0,0,0,0,0,0,0,0,0,0,0,0,0,0,0,0,0,0,0],"sum_hessian":[3.4489413E2,6.1161022E1,2.837331E2,5.5769024E1,5.3919983E0,1.2267567E2,1.6105743E2,1.2769543E1,4.299948E1,8.310807E1,3.95676E1,1.4036766E1,1.4702068E2,6.6850696E0,6.0844727E0,3.3559437E1,9.440044E0,6.188206E1,2.122601E1,1.4463414E1,2.5104185E1,5.7349963E0,8.30177E0,9.470577E1,5.23149E1,8.892595E0,2.4666842E1,4.7539654E1,1.4342406E1,1.2870034E1,8.355974E0,5.785933E0,8.677482E0,1.612494E1,8.979244E0,1.2685883E1,8.201989E1,3.6086124E1,1.6228773E1],"tree_param":{"num_deleted":"0","num_feature":"10","num_nodes":"39","size_leaf_vector":"1"}},{"base_weights":[-1.7662885E-2,1.6832206E-1,-2.2972058E-1,-8.7542936E-2,2.8655165E-1,-1.2810256E-1,-4.1051236E-1,-2.9991439E-2,-1.8213395E-2,2.2091317E-1,6.449947E-1,-3.1733903E-1,-1.30004035E-2,-2.6980557E-3,-4.6599084E-1,5.3204652E-2,-2.879861E-2,1.23697445E-1,5.828529E-1,3.7382168E-1,4.3876488E-2,3.7151225E-2,-4.397329E-1,2.2326365E-1,-2.051282E-1,-3.3022305E-1,-5.5811447E-1,-2.555979E-3,2.1505216E-2,1.0074799E-2,-1.8654777E-2,1.4184058E-2,4.7373958E-2,8.289704E-3,2.6071599E-2,-1.4776416E-2,2.002876E-2,1.4758427E-3,-2.709102E-2,2.4726724E-2,-1.5816834E-3,-1.6584655E-2,4.7416682E-3,-2.1496339E-2,-4.85969E-3,-3.0870873E-2,-1.4708816E-2],"categories":[],"categories_nodes":[],"categories_segments":[],"categories_sizes":[],"default_left":[0,0,0,0,0,0,0,0,0,0,0,0,0,0,0,0,0,0,0,0,0,0,0,0,0,0,0,0,0,0,0,0,0,0,0,0,0,0,0,0,0,0,0,0,0,0,0],"id":32,"left_children":[1,3,5,7,9,11,13,-1,15,17,19,21,23,-1,25,27,-1,29,31,33,-1,35,37,39,41,43,45,-1,-1,-1,-1,-1,-1,-1,-1,-1,-1,-1,-1,-1,-1,-1,-1,-1,-1,-1,-1],"loss_changes":[1.444886E1,5.9309745E0,3.0916119E0,2.2076902E0,3.0046568E0,2.4139614E0,1.1840239E0,0E0,2.2634313E0,3.9595718E0,9.446287E-1,1.8361712E0,3.226554E0,0E0,4.7566986E-1,2.0117695E0,0E0,3.6151242E0,2.3482418E0,2.531519E-1,0E0,1.5313966E0,1.51333E0,2.2217543E0,1.5184033E0,5.107045E-1,2.87735E-1,0E0,0E0,0E0,0E0,0E0,0E0,0E0,0E0,0E0,0E0,0E0,0E0,0E0,0E0,0E0,0E0,0E0,0E0,0E0,0E0],"parents":[2147483647,0,0,1,1,2,2,3,3,4,4,5,5,6,6,8,8,9,9,10,10,11,11,12,12,14,14,15,15,17,17,18,18,19,19,21,21,22,22,23,23,24,24,25,25,26,26],"right_children":[2,4,6,8,10,12,14,-1,16,18,20,22,24,-1,26,28,-1,30,32,34,-1,36,38,40,42,44,46,-1,-1,-1,-1,-1,-1,-1,-1,-1,-1,-1,-1,-1,-1,-1,-1,-1,-1,-1,-1],"split_conditions":[-5.8624E-2,1.4E0,5.416456E-1,6.437758E-1,2.480068E0,1.503618E-1,9.92522E-1,-2.9991439E-2,1.2E0,-2.2161601E-1,1.25E0,1.1084863E0,1E-1,-2.6980557E-3,1E0,1.1476684E0,-2.879861E-2,1.4581678E0,1.4455051E0,9.92522E-1,4.3876488E-2,1.3041266E0,8.73961E-1,1.138587E0,1.719811E0,6.666667E-1,1.8E0,-2.555979E-3,2.1505216E-2,1.0074799E-2,-1.8654777E-2,1.4184058E-2,4.7373958E-2,8.289704E-3,2.6071599E-2,-1.4776416E-2,2.002876E-2,1.4758427E-3,-2.709102E-2,2.4726724E-2,-1.5816834E-3,-1.6584655E-2,4.7416682E-3,-2.1496339E-2,-4.85969E-3,-3.0870873E-2,-1.4708816E-2],"split_indices":[8,7,8,0,4,8,5,0,9,8,2,5,9,0,7,0,0,0,4,5,0,4,4,4,5,7,7,0,0,0,0,0,0,0,0,0,0,0,0,0,0,0,0,0,0,0,0],"split_type":[0,0,0,0,0,0,0,0,0,0,0,0,0,0,0,0,0,0,0,0,0,0,0,0,0,0,0,0,0,0,0,0,0,0,0,0,0,0,0,0,0,0,0,0,0,0,0],"sum_hessian":[3.643743E2,1.9423073E2,1.7014359E2,6.146709E1,1.3276363E2,1.10015495E2,6.0128082E1,6.414868E0,5.5052223E1,1.1358089E2,1.9182745E1,4.094381E1,6.9071686E1,8.361664E0,5.176642E1,4.9605156E1,5.4470663E0,9.059039E1,2.2990494E1,1.0059434E1,9.123311E0,1.0687111E1,3.0256697E1,3.0905012E1,3.816668E1,2.277952E1,2.8986898E1,3.9528267E1,1.0076889E1,7.883856E1,1.1751831E1,1.3605412E1,9.385083E0,5.0564923E0,5.002941E0,5.6770983E0,5.0100126E0,5.533335E0,2.4723362E1,1.45162115E1,1.6388802E1,2.6766932E1,1.1399746E1,1.5361858E1,7.417661E0,2.257531E1,6.411589E0],"tree_param":{"num_deleted":"0","num_feature":"10","num_nodes":"47","size_leaf_vector":"1"}},{"base_weights":[-2.9921474E-2,-1.2406625E-1,3.0696958E-1,-4.644543E-2,-3.1821153E-1,1.3824192E-1,4.6426708E-1,-9.038926E-3,-4.4039953E-1,-5.591849E-1,-2.3240533E-1,3.8816416E-1,-1.3783902E-1,5.14223E-1,3.9304853E-3,-4.55569E-2,2.2815175E-1,-9.61175E-3,-6.084998E-1,-6.3749945E-1,-1.08335195E-2,9.2403805E-3,-2.737728E-1,2.5980002E-1,3.686078E-2,-3.6664343E-1,1.0375877E-1,5.7366073E-1,9.588951E-3,4.0972224E-3,-6.90353E-3,-9.053671E-3,1.7661497E-2,-3.587785E-2,-1.9271253E-2,-1.6505197E-2,-3.5960685E-2,-1.6254973E-2,5.486398E-3,2.1198137E-2,-2.443902E-3,-5.4388093E-3,-2.7727505E-2,-7.914074E-3,1.6662844E-2,1.0727671E-2,3.1466223E-2],"categories":[],"categories_nodes":[],"categories_segments":[],"categories_sizes":[],"default_left":[0,0,0,0,0,0,0,0,0,0,0,0,0,0,0,0,0,0,0,0,0,0,0,0,0,0,0,0,0,0,0,0,0,0,0,0,0,0,0,0,0,0,0,0,0,0,0],"id":33,"left_children":[1,3,5,7,9,11,13,15,17,19,21,23,25,27,-1,29,31,-1,33,35,-1,-1,37,39,-1,41,43,45,-1,-1,-1,-1,-1,-1,-1,-1,-1,-1,-1,-1,-1,-1,-1,-1,-1,-1,-1],"loss_changes":[1.41641445E1,5.2418094E0,2.525281E0,3.6854486E0,1.9265213E0,3.3997397E0,9.242115E-1,1.9997419E0,7.878442E-1,5.433173E-1,1.3459353E0,9.6071506E-1,1.3525994E0,7.360792E-1,0E0,2.3688126E0,1.6409222E0,0E0,2.6778698E-2,2.690239E-1,0E0,0E0,1.3876638E0,1.0517335E0,0E0,5.4217863E-1,7.952288E-1,6.000557E-1,0E0,0E0,0E0,0E0,0E0,0E0,0E0,0E0,0E0,0E0,0E0,0E0,0E0,0E0,0E0,0E0,0E0,0E0,0E0],"parents":[2147483647,0,0,1,1,2,2,3,3,4,4,5,5,6,6,7,7,8,8,9,9,10,10,11,11,12,12,13,13,15,15,16,16,18,18,19,19,22,22,23,23,25,25,26,26,27,27],"right_children":[2,4,6,8,10,12,14,16,18,20,22,24,26,28,-1,30,32,-1,34,36,-1,-1,38,40,-1,42,44,46,-1,-1,-1,-1,-1,-1,-1,-1,-1,-1,-1,-1,-1,-1,-1,-1,-1,-1,-1],"split_conditions":[5.319554E-1,2E0,1.2E0,2.1112137E0,-9.875778E-1,6.666667E-1,1.6907074E0,1.643152E0,1.4E0,1.6666666E0,8.86038E-1,2.2274697E0,1.6666666E0,2.561074E0,3.9304853E-3,1E0,1.3333334E0,-9.61175E-3,2.441159E0,8.264854E-1,-1.08335195E-2,9.2403805E-3,1.503618E-1,1.974378E0,3.686078E-2,1.1872078E0,2.2E0,1.25E0,9.588951E-3,4.0972224E-3,-6.90353E-3,-9.053671E-3,1.7661497E-2,-3.587785E-2,-1.9271253E-2,-1.6505197E-2,-3.5960685E-2,-1.6254973E-2,5.486398E-3,2.1198137E-2,-2.443902E-3,-5.4388093E-3,-2.7727505E-2,-7.914074E-3,1.6662844E-2,1.0727671E-2,3.1466223E-2],"split_indices":[8,7,7,1,8,7,1,0,7,3,1,0,2,0,0,2,3,0,1,0,0,0,8,5,0,1,3,2,0,0,0,0,0,0,0,0,0,0,0,0,0,0,0,0,0,0,0],"split_type":[0,0,0,0,0,0,0,0,0,0,0,0,0,0,0,0,0,0,0,0,0,0,0,0,0,0,0,0,0,0,0,0,0,0,0,0,0,0,0,0,0,0,0,0,0,0,0],"sum_hessian":[4.4438474E2,3.4781808E2,9.656663E1,2.4936087E2,9.845723E1,4.7497032E1,4.906959E1,2.2867116E2,2.0689709E1,2.4404404E1,7.405282E1,2.471647E1,2.2780561E1,4.314718E1,5.9224153E0,1.9886218E2,2.9808973E1,9.220769E0,1.1468941E1,1.9161884E1,5.242521E0,6.3673425E0,6.768548E1,1.9346188E1,5.370283E0,1.1434232E1,1.1346331E1,3.5773724E1,7.3734555E0,8.366721E1,1.1519497E2,6.873356E0,2.2935617E1,6.2142444E0,5.254696E0,5.082414E0,1.407947E1,5.9830257E1,7.8552203E0,1.2385691E1,6.960498E0,5.485407E0,5.948825E0,5.4424605E0,5.90387E0,5.4524407E0,3.0321281E1],"tree_param":{"num_deleted":"0","num_feature":"10","num_nodes":"47","size_leaf_vector":"1"}},{"base_weights":[-6.882148E-3,4.6241816E-2,-1.5413015E-1,1.8022802E-2,4.9240455E-1,1.1584113E-2,-1.9243209E-1,6.497874E-2,-1.20149404E-1,4.204412E-3,4.5742385E-2,-3.9561486E-1,-8.940158E-2,4.3460816E-2,2.5842702E-2,-2.987552E-1,6.591462E-2,-2.9378636E-2,-1.9143374E-1,1.7996695E-2,-4.084128E-1,4.1597295E-3,-1.3898807E-2,-2.4094336E-2,1.6382882E-4,-9.246869E-3,1.5529685E-2,3.6607299E-3,-1.7620333E-2,-6.82627E-3,1.6852764E-2,-2.8301029E-2,-1.1556796E-2],"categories":[],"categories_nodes":[],"categories_segments":[],"categories_sizes":[],"default_left":[0,0,0,0,0,0,0,0,0,0,0,0,0,0,0,0,0,0,0,0,0,0,0,0,0,0,0,0,0,0,0,0,0],"id":34,"left_children":[1,3,5,7,9,-1,11,13,15,-1,-1,17,19,21,-1,23,25,-1,27,29,31,-1,-1,-1,-1,-1,-1,-1,-1,-1,-1,-1,-1],"loss_changes":[2.6915786E0,3.175953E0,1.3925107E0,1.5581152E0,2.5120702E0,0E0,1.7131288E0,1.7179474E0,2.045465E0,0E0,0E0,9.7755384E-1,1.9504107E0,2.2192209E0,0E0,1.7319038E0,1.9402198E0,0E0,6.631048E-1,2.1850522E0,2.694528E-1,0E0,0E0,0E0,0E0,0E0,0E0,0E0,0E0,0E0,0E0,0E0,0E0],"parents":[2147483647,0,0,1,1,2,2,3,3,4,4,6,6,7,7,8,8,11,11,12,12,13,13,15,15,16,16,18,18,19,19,20,20],"right_children":[2,4,6,8,10,-1,12,14,16,-1,-1,18,20,22,-1,24,26,-1,28,30,32,-1,-1,-1,-1,-1,-1,-1,-1,-1,-1,-1,-1],"split_conditions":[1.6240011E0,1.5627056E0,5E-1,1.25E0,1.25E0,1.1584113E-2,1.1843122E0,1.4581678E0,1.6E0,4.204412E-3,4.5742385E-2,7.3333335E-1,1.9682542E0,1.3348988E0,2.5842702E-2,1.62387E0,1.2E0,-2.9378636E-2,2.25E0,1.6200298E0,2.139824E0,4.1597295E-3,-1.3898807E-2,-2.4094336E-2,1.6382882E-4,-9.246869E-3,1.5529685E-2,3.6607299E-3,-1.7620333E-2,-6.82627E-3,1.6852764E-2,-2.8301029E-2,-1.1556796E-2],"split_indices":[0,0,7,2,2,0,4,0,2,0,0,9,4,0,0,4,6,0,3,4,4,0,0,0,0,0,0,0,0,0,0,0,0],"split_type":[0,0,0,0,0,0,0,0,0,0,0,0,0,0,0,0,0,0,0,0,0,0,0,0,0,0,0,0,0,0,0,0,0],"sum_hessian":[3.4217502E2,2.5195938E2,9.021565E1,2.3794986E2,1.4009518E1,7.691453E0,8.25242E1,1.7799158E2,5.9958286E1,7.7335935E0,6.275924E0,2.681114E1,5.5713062E1,1.7094739E2,7.0441933E0,3.0283255E1,2.9675032E1,1.2851392E1,1.3959747E1,4.2386738E1,1.3326326E1,1.5280045E2,1.8146935E1,1.8481714E1,1.1801538E1,1.4773244E1,1.4901789E1,5.4858623E0,8.473886E0,2.8942028E1,1.3444709E1,5.89369E0,7.4326363E0],"tree_param":{"num_deleted":"0","num_feature":"10","num_nodes":"33","size_leaf_vector":"1"}},{"base_weights":[-2.3359621E-2,1.4483403E-1,-2.0029531E-1,4.850309E-1,5.3896945E-2,-1.08420745E-1,-3.7164837E-1,-6.382623E-3,6.4360917E-1,1.281346E-1,-1.8229036E-1,2.5526473E-1,-1.747091E-1,-2.8141126E-2,-2.7415434E-1,7.131237E-1,1.2520692E-2,5.2823335E-2,4.4316778E-1,8.74783E-3,-2.7582505E-1,4.579531E-1,-8.307849E-3,-2.5068757E-1,5.8266953E-2,-4.549267E-1,-4.7509883E-2,2.5940303E-2,5.4533567E-2,2.9946087E-2,2.4181405E-4,3.2274432E-2,-3.6623788E-3,-2.143891E-2,-2.2990422E-3,2.1855903E-3,3.560976E-2,-9.649557E-3,-3.0753179E-2,2.7203267E-2,-1.5430174E-2,-2.9112378E-2,-1.6531536E-2,2.0142619E-2,-1.3242471E-2],"categories":[],"categories_nodes":[],"categories_segments":[],"categories_sizes":[],"default_left":[0,0,0,0,0,0,0,0,0,0,0,0,0,0,0,0,0,0,0,0,0,0,0,0,0,0,0,0,0,0,0,0,0,0,0,0,0,0,0,0,0,0,0,0,0],"id":35,"left_children":[1,3,5,7,9,11,13,-1,15,17,19,21,23,-1,25,27,-1,29,31,-1,33,35,-1,37,39,41,43,-1,-1,-1,-1,-1,-1,-1,-1,-1,-1,-1,-1,-1,-1,-1,-1,-1,-1],"loss_changes":[1.1359762E1,6.030445E0,2.8874269E0,4.0820503E0,2.7517498E0,2.997178E0,1.047823E0,0E0,7.198448E-1,2.799461E0,1.3055189E0,1.7235959E0,1.8587995E0,0E0,1.8083134E0,1.4436235E0,0E0,2.5432453E0,2.4315677E0,0E0,1.0422118E0,1.3685379E0,0E0,1.5369196E0,4.8788633E0,1.9885063E-1,2.1557615E0,0E0,0E0,0E0,0E0,0E0,0E0,0E0,0E0,0E0,0E0,0E0,0E0,0E0,0E0,0E0,0E0,0E0,0E0],"parents":[2147483647,0,0,1,1,2,2,3,3,4,4,5,5,6,6,8,8,9,9,10,10,11,11,12,12,14,14,15,15,17,17,18,18,20,20,21,21,23,23,24,24,25,25,26,26],"right_children":[2,4,6,8,10,12,14,-1,16,18,20,22,24,-1,26,28,-1,30,32,-1,34,36,-1,38,40,42,44,-1,-1,-1,-1,-1,-1,-1,-1,-1,-1,-1,-1,-1,-1,-1,-1,-1,-1],"split_conditions":[-1.073972E-1,9.312368E-1,5.54607E-1,1.0773135E0,1.6433206E0,9.934834E-1,9.69438E-1,-6.382623E-3,1.5E0,-2.2161601E-1,-8E-1,1.6666666E0,3.603268E-1,-2.8141126E-2,2E0,-5E-1,1.2520692E-2,-1.3369749E0,3.3333334E-1,